/* Generated by Edge Impulse
*
* Permission is hereby granted, free of charge, to any person obtaining a copy
* of this software and associated documentation files (the "Software"), to deal
* in the Software without restriction, including without limitation the rights
* to use, copy, modify, merge, publish, distribute, sublicense, and/or sell
* copies of the Software, and to permit persons to whom the Software is
* furnished to do so, subject to the following conditions:
*
* The above copyright notice and this permission notice shall be included in
* all copies or substantial portions of the Software.
*
* THE SOFTWARE IS PROVIDED "AS IS", WITHOUT WARRANTY OF ANY KIND, EXPRESS OR
* IMPLIED, INCLUDING BUT NOT LIMITED TO THE WARRANTIES OF MERCHANTABILITY,
* FITNESS FOR A PARTICULAR PURPOSE AND NONINFRINGEMENT. IN NO EVENT SHALL THE
* AUTHORS OR COPYRIGHT HOLDERS BE LIABLE FOR ANY CLAIM, DAMAGES OR OTHER
* LIABILITY, WHETHER IN AN ACTION OF CONTRACT, TORT OR OTHERWISE, ARISING FROM,
* OUT OF OR IN CONNECTION WITH THE SOFTWARE OR THE USE OR OTHER DEALINGS IN THE
* SOFTWARE.
*/
// Generated on: 30.09.2021 05:44:39

#include <stdio.h>
#include <stdlib.h>
#include <vector>
#include "edge-impulse-sdk/tensorflow/lite/c/builtin_op_data.h"
#include "edge-impulse-sdk/tensorflow/lite/c/common.h"
#include "edge-impulse-sdk/tensorflow/lite/micro/micro_mutable_op_resolver.h"
#include "edge-impulse-sdk/porting/ei_classifier_porting.h"

#if EI_CLASSIFIER_PRINT_STATE
#if defined(__cplusplus) && EI_C_LINKAGE == 1
extern "C" {
    extern void ei_printf(const char *format, ...);
}
#else
extern void ei_printf(const char *format, ...);
#endif
#endif

#if defined __GNUC__
#define ALIGN(X) __attribute__((aligned(X)))
#elif defined _MSC_VER
#define ALIGN(X) __declspec(align(X))
#elif defined __TASKING__
#define ALIGN(X) __align(X)
#endif

using namespace tflite;
using namespace tflite::ops;
using namespace tflite::ops::micro;

namespace {

constexpr int kTensorArenaSize = 1264;

#if defined(EI_CLASSIFIER_ALLOCATION_STATIC)
uint8_t tensor_arena[kTensorArenaSize] ALIGN(16);
#elif defined(EI_CLASSIFIER_ALLOCATION_STATIC_HIMAX)
#pragma Bss(".tensor_arena")
uint8_t tensor_arena[kTensorArenaSize] ALIGN(16);
#pragma Bss()
#elif defined(EI_CLASSIFIER_ALLOCATION_STATIC_HIMAX_GNU)
uint8_t tensor_arena[kTensorArenaSize] ALIGN(16) __attribute__((section(".tensor_arena")));
#else
#define EI_CLASSIFIER_ALLOCATION_HEAP 1
uint8_t* tensor_arena = NULL;
#endif

static uint8_t* tensor_boundary;
static uint8_t* current_location;

template <int SZ, class T> struct TfArray {
  int sz; T elem[SZ];
};
enum used_operators_e {
  OP_FULLY_CONNECTED, OP_SOFTMAX,  OP_LAST
};
struct TensorInfo_t { // subset of TfLiteTensor used for initialization from constant memory
  TfLiteAllocationType allocation_type;
  TfLiteType type;
  void* data;
  TfLiteIntArray* dims;
  size_t bytes;
  TfLiteQuantization quantization;
};
struct NodeInfo_t { // subset of TfLiteNode used for initialization from constant memory
  struct TfLiteIntArray* inputs;
  struct TfLiteIntArray* outputs;
  void* builtin_data;
  used_operators_e used_op_index;
};

TfLiteContext ctx{};
TfLiteTensor tflTensors[11];
TfLiteEvalTensor tflEvalTensors[11];
TfLiteRegistration registrations[OP_LAST];
TfLiteNode tflNodes[4];

const TfArray<2, int> tensor_dimension0 = { 2, { 1,1000 } };
const TfArray<1, float> quant0_scale = { 1, { 237.90068054199219, } };
const TfArray<1, int> quant0_zero = { 1, { 3 } };
const TfLiteAffineQuantization quant0 = { (TfLiteFloatArray*)&quant0_scale, (TfLiteIntArray*)&quant0_zero, 0 };
const ALIGN(8) int32_t tensor_data1[64] = { 0, 0, 0, 0, 0, 0, 0, 0, 0, 0, 0, 0, 0, 0, 0, 0, 0, 0, 0, 0, 0, 0, 0, 0, 0, 0, 0, 0, 0, 0, 0, 0, 0, 0, 0, 0, 0, 0, 0, 0, 0, 0, 0, 0, 0, 0, 0, 0, 0, 0, 0, 0, 0, 0, 0, 0, 0, 0, 0, 0, 0, 0, 0, 0, };
const TfArray<1, int> tensor_dimension1 = { 1, { 64 } };
const TfArray<1, float> quant1_scale = { 1, { 0.15550437569618225, } };
const TfArray<1, int> quant1_zero = { 1, { 0 } };
const TfLiteAffineQuantization quant1 = { (TfLiteFloatArray*)&quant1_scale, (TfLiteIntArray*)&quant1_zero, 0 };
const ALIGN(8) int32_t tensor_data2[32] = { 0, 0, 0, 0, 0, 0, 0, 0, 0, 0, 0, 0, 0, 0, 0, 0, 0, 0, 0, 0, 0, 0, 0, 0, 0, 0, 0, 0, 0, 0, 0, 0, };
const TfArray<1, int> tensor_dimension2 = { 1, { 32 } };
const TfArray<1, float> quant2_scale = { 1, { 0.36180323362350464, } };
const TfArray<1, int> quant2_zero = { 1, { 0 } };
const TfLiteAffineQuantization quant2 = { (TfLiteFloatArray*)&quant2_scale, (TfLiteIntArray*)&quant2_zero, 0 };
const ALIGN(8) int32_t tensor_data3[2] = { 0, 0, };
const TfArray<1, int> tensor_dimension3 = { 1, { 2 } };
const TfArray<1, float> quant3_scale = { 1, { 0.41111323237419128, } };
const TfArray<1, int> quant3_zero = { 1, { 0 } };
const TfLiteAffineQuantization quant3 = { (TfLiteFloatArray*)&quant3_scale, (TfLiteIntArray*)&quant3_zero, 0 };
const ALIGN(8) int8_t tensor_data4[64*1000] = { 
  -82, 74, -34, 107, -62, 105, 23, -19, -11, 114, 23, -42, -96, 25, 50, -51, -103, -34, 2, -50, -54, -74, 42, -12, 90, 73, -70, 48, -35, 95, 21, 11, 46, 83, 44, -57, 20, 64, -9, 50, 79, 28, 33, 73, 25, 33, 78, 86, 42, -27, -30, -97, -43, 55, 14, 9, -105, 46, 35, 32, -86, 61, 102, 108, -27, -58, 90, 1, -118, 103, 50, -58, 91, -81, -52, -52, 82, 43, 27, -34, -5, -93, -100, 81, -70, -102, 54, -68, -29, -44, 53, -63, 61, -102, -70, -80, -22, -8, -88, 45, 99, -88, 77, -70, -24, 90, 38, 18, 33, 68, -55, -27, -43, -47, 52, -84, 67, -4, -6, 25, 47, -104, 12, -111, 43, -61, -35, -55, 32, 93, -27, -61, 13, -93, -105, -69, 62, -28, 80, -86, -104, 7, -69, -42, -106, -13, 45, -11, -46, -8, 41, -30, -95, 32, 0, 30, 109, 113, 92, 29, 83, -86, 68, -86, 48, -57, -39, 36, -8, -111, 35, 64, -81, -101, -50, 92, -34, -67, -77, -76, 47, 116, -49, -42, 74, 96, 27, 58, 39, -90, 114, 27, -5, -36, 63, -58, -55, -54, -35, 83, -65, 23, 49, 14, 36, -90, 63, -102, -83, -108, -94, 32, 13, 100, 99, 19, 35, 102, -23, 11, 72, -22, -107, -103, 31, 49, -110, -103, -44, 109, -28, -22, 114, 35, -29, 97, 63, -62, 69, 18, 42, -55, -84, 20, 6, -62, -7, -83, 25, -94, 29, 106, 100, -16, -11, 52, -14, -26, -81, 53, -60, 44, 25, 50, -80, 6, 119, 105, 46, -37, -75, -88, -79, 19, 85, -47, 53, 9, 68, -37, 53, -13, -66, -61, -102, -8, 105, 16, -41, -34, 31, -15, 109, -81, -106, -41, -1, 43, 35, 109, 37, 18, -103, -21, 41, 28, 110, 18, -107, 89, 104, 61, -59, -27, -85, 16, -100, 114, -72, -48, 16, 60, 117, 13, -24, 86, 60, 96, -85, 61, 61, -104, 72, -92, 46, -1, -94, -80, -96, -8, -91, -63, -76, -95, -89, -45, -99, 30, 11, 44, 40, -6, -12, 58, -96, -73, 12, 89, 43, 30, 37, -70, -103, -85, 109, -70, 11, 18, 90, -115, 46, 93, -76, 57, 60, -10, -115, -44, -60, -57, 13, 73, -72, 31, 100, -85, -88, -92, -19, 103, 30, -22, -95, 41, 75, 91, -15, 19, -107, -50, -106, 18, -1, 10, 12, 56, -14, 93, -23, 37, -26, -55, -38, -116, 83, 41, -32, -50, 39, 17, 3, -27, 27, 53, -92, -52, 79, 41, -34, 28, -14, 23, 20, -66, -77, 77, 67, -29, 3, 64, -61, -13, 76, 57, 76, -106, 45, -30, -58, 52, 1, -36, 65, 10, 7, 18, -50, -7, -87, 58, 27, -20, -20, 80, -65, 44, 92, 68, -76, 18, -90, -9, -53, 28, -61, 23, -36, 33, -97, -93, 2, 40, 56, 5, -5, 77, 10, 11, 74, -4, -27, -36, 66, 8, -86, 53, 75, -69, 94, -100, -24, 47, 89, -88, 98, -45, 35, -64, -39, 40, 36, 32, 108, -60, -79, 55, 6, 87, -71, -86, -52, 37, 45, -19, 2, 62, -5, -102, -1, 101, 29, 110, -83, 74, 84, -10, -78, 44, -97, 92, -46, 69, -68, 55, -38, 44, 35, -66, -34, -61, 29, -113, 42, 77, -54, 34, 6, 51, 65, 30, -91, 109, 72, 6, -88, 67, -102, -19, 26, 7, -50, -86, 46, -102, 7, 33, -38, -111, -6, -81, 61, -108, 52, -80, -34, -69, 8, 64, -112, 24, 83, -4, 111, -87, -76, -19, 98, -64, 29, 116, 21, 70, -38, 12, 71, 20, 52, 18, -19, -64, -5, -53, 45, -45, 34, 3, -95, 9, -24, -18, -58, 3, 22, 98, 27, 67, -16, -64, -75, 78, 111, -80, 86, 94, 21, -95, 35, -66, -59, -44, -58, 60, 58, -89, -14, -101, -23, -67, 11, -37, -11, -53, 8, 88, 112, -101, -11, -106, 92, -73, -16, 67, 51, -91, -9, 59, -7, -70, 35, -8, -25, 78, -50, -30, -27, -87, -38, -98, -70, -45, -45, 32, 19, -91, 62, 64, 12, 49, -6, 48, -66, -1, -22, -9, -45, -48, 80, 54, -24, -62, -102, -45, 19, 22, -56, 81, 6, 39, 93, -33, 41, -112, 12, 90, -102, -79, 107, 89, 48, 114, -24, 30, 93, 96, 26, -9, 35, 76, -21, 7, 105, -36, 26, -22, -80, 106, -99, -29, 108, -105, 83, -46, -39, 50, -69, 110, 99, 44, 12, -87, -92, -32, 53, 27, 25, 38, 35, -88, 30, 22, 75, -72, -112, 83, -58, -32, 63, -14, 2, -92, 109, -1, 17, 1, 115, -69, 57, -16, 84, 40, 8, -101, -96, 102, -21, -4, 22, -20, -71, 52, -58, 63, 43, 64, 104, -14, 107, -10, -16, -87, -65, 19, 61, -58, -51, -55, -50, -51, 97, -89, -94, -94, 109, -43, 87, 88, 0, 116, 107, -36, 1, 97, -17, -98, -47, -85, -29, 74, -4, -51, 58, -64, 98, -83, 46, 60, -94, 17, -102, -78, -89, 34, -34, -38, -15, 32, 64, 60, 66, -34, -75, 47, -100, 28, 106, -83, -116, -77, -25, -2, -106, -49, 35, 106, 71, 20, -46, 96, -4, -79, 68, -105, -6, -29, -95, 10, -21, 72, -18, 72, 105, -108, 63, 12, 68, 17, 68, -55, -53, -52, 77, 76, 57, 38, 65, -34, 2, 80, -68, -80, -25, 62, -59, -57, 102, 101, -50, -48, -22, 25, 56, 48, 61, -78, 38, 36, -33, -110, -58, -78, -59, 104, -41, -1, -89, -9, -21, 17, 20, -47, 49, 74, 72, -4, 84, -13, -105, -12, -49, -74, 110, 111, -50, -29, 94, -48, -80, 100, 52, -30, -74, 106, 7, 16, -62, -39, -32, 69, 10, -36, 101, 33, 48, 77, -38, 3, 112, 98, 24, -14, 73, -40, 98, 13, -75, 103, 16, -50, 96, 55, -60, -82, -45, 105, -91, -26, -89, 28, 51, 119, 70, 8, -76, 69, 103, -9, 16, -81, 19, 117, 
  7, -27, -17, 78, 17, -49, 90, -14, 85, 62, -114, 67, -9, -10, 106, -22, 3, 79, 105, 86, -38, 46, 13, 42, -93, 89, 5, -27, 113, -89, 8, 49, 25, -62, -24, 56, -61, -68, 21, -40, 71, 64, -79, 15, 113, -76, -65, 64, -95, 8, 5, -101, 98, 47, -98, -48, 114, -58, 72, 92, -75, 0, -18, -3, -94, -50, -24, 46, -66, 57, -28, -2, 19, 49, 53, 60, -61, -93, -52, 5, -73, -38, -79, 61, -29, -65, -82, 109, -55, -1, 23, -6, 89, -20, 78, 34, 90, 57, 81, -20, 58, -4, -17, -77, -20, -103, 26, -22, -70, -32, 111, 33, -1, -110, -66, 35, 106, 48, -77, -29, -94, 105, 46, -6, -26, -11, 95, 15, 85, 45, 35, -5, 92, -92, -22, -70, -72, 30, 62, 76, -75, -25, -21, -34, 76, -108, -88, 89, 27, -55, 17, -40, -70, 94, -45, -13, 33, -55, 1, -28, 104, 57, 10, 26, -35, 87, -64, 116, -24, -58, -52, 27, 30, 13, -110, -17, -90, -32, -78, 61, -4, -99, -103, 42, 69, 50, 27, -45, 93, -67, 53, -85, 31, -47, -31, -70, -76, -65, -40, -8, 24, 76, 72, 14, -28, -23, -76, -19, -89, -6, -31, 45, -67, 63, 10, 60, 100, 8, 115, -95, -39, 8, -62, -83, 26, -79, 89, 78, 101, 48, -59, 81, 17, -103, 101, -86, -5, 97, 81, 28, -54, 54, 22, -47, -4, -101, -14, -31, -7, 112, 11, -88, 109, 14, -61, -1, -49, 29, -81, 96, -30, 89, 105, -29, -112, -108, 45, -47, -101, -77, -46, 109, -93, 107, 17, -101, -92, -47, -116, -47, -71, -40, 98, -95, -52, -44, -79, 48, 64, -38, -105, 40, 72, 81, 13, -32, 52, -61, -102, -79, -29, -30, -122, -7, 93, 84, -42, 43, -41, -52, -26, -26, 59, 36, -59, -123, 83, 38, -24, 43, 68, 12, 60, 11, 63, 82, 104, 50, 60, 80, 78, 42, 67, -4, 82, 36, 72, -96, -31, 86, -70, 101, -88, 91, -102, -93, -13, 40, -40, -87, 98, -75, -90, 58, 113, 44, -51, -41, -61, -57, 76, -18, 111, -66, -11, 73, -77, 113, -84, 111, 66, 11, -71, -104, 95, -58, 36, -41, 106, -109, -56, 34, 8, -19, 78, 0, 9, 101, 10, 83, 111, -9, -86, 71, 64, 55, 99, -7, 6, 46, -74, -27, -56, 86, 20, 119, -38, -49, 7, 100, -72, 88, 113, -65, -62, 41, -95, 21, -60, 113, -12, 62, 61, -7, 18, -18, 100, 9, -40, -46, -1, 41, 48, -8, -39, -91, -108, 85, -19, -101, -65, 70, -43, 32, 50, 101, 103, -16, 27, 85, -92, 82, 55, -41, -29, 43, -75, 31, 60, -41, 67, 91, 24, -18, -101, 23, -1, 8, -64, 67, 68, -82, -24, -6, -20, -22, 43, 88, -89, -60, -89, -79, 21, 106, 98, -30, -34, 111, -111, 20, 97, -36, -107, -16, -115, 54, 88, -90, 4, 55, -37, 72, -1, -11, -64, -41, -77, 26, -77, 34, -10, 9, 34, 87, -15, 11, -45, -23, -19, -39, 82, 72, 16, 35, 34, 29, 0, 51, 122, 9, -33, -81, 34, 114, 25, -2, 82, -12, 1, -4, -39, 69, -76, 117, -73, 102, 25, -35, 49, -36, 9, 66, -19, 100, -73, -80, 44, -84, 92, 0, -93, -96, -48, -5, 99, -74, 39, 54, -56, 100, 35, 76, -6, 90, -64, 41, -74, 56, 99, -78, 78, -7, 75, 84, 123, 3, 61, 111, 113, 13, 112, -67, 4, 63, -22, -70, -30, -74, -36, 107, -82, -68, -3, 102, -14, -7, -39, -43, -111, 75, -95, -32, 78, 77, 84, 65, 35, 66, -100, 82, 47, -24, 101, 82, 82, 13, -64, -119, 50, -39, -76, 15, -42, -83, 6, -86, 3, 17, -39, 105, 52, 8, 81, -21, -114, -19, 62, -21, -31, -109, 100, -3, 75, 35, -16, 104, 33, 36, 2, 82, -52, -39, -9, 2, 24, -57, 96, 81, 81, 60, -28, 84, -64, 59, -74, -103, -69, -62, 9, 71, -14, -110, -98, -77, -62, 25, 34, 78, -37, -43, -7, 19, 98, -39, -86, -93, 14, -66, 114, -90, -109, -66, 6, -50, 105, 4, 1, 42, 47, 73, -33, -44, -61, -63, -35, 114, 21, 114, -56, -58, -35, 30, 44, 104, -69, -51, -67, 63, 26, -30, 71, -10, -103, -109, 46, -108, -30, -71, 27, 29, -55, -5, 67, 89, -84, 40, 42, 48, -36, 77, -104, 20, 47, -106, 107, -70, -40, -99, -26, 92, 12, 111, 112, -76, 23, 38, 11, 69, 97, 92, 55, -7, -98, -87, 61, 98, 48, -48, -6, -6, -88, -40, -31, -120, -119, -84, 41, -85, 60, -27, -61, -92, -2, -6, 73, 92, -89, 92, -115, -120, 47, 61, -77, -34, -20, 90, 102, -7, -120, 53, -14, 3, 89, 68, -119, -39, -77, -33, 84, -67, -117, -76, 75, 103, 63, 81, 104, -78, -40, -116, 87, -118, -17, -25, 50, 21, 94, -86, -79, 9, -38, -11, -94, 0, 5, 69, -112, 101, 3, 93, -13, 116, 70, 22, -68, -73, 11, -90, -55, 27, -18, -69, -55, -57, -16, 22, 63, 52, 46, -78, -29, 37, 19, -77, 106, 69, 102, -83, -30, -19, 21, 46, 37, 10, -46, -11, -22, 35, 9, -57, 8, -15, -60, 74, -40, 63, -88, 92, 1, -7, 56, 110, -34, -14, -53, 65, -13, -78, -52, -49, -91, 87, 107, -94, -93, 29, -8, 103, 10, -69, 113, -102, -47, 78, -31, 39, 1, -27, -43, -56, 99, 58, 16, 26, 60, 7, 0, -30, -38, -54, -47, 10, 3, 79, -3, -54, 113, -87, -29, -21, 105, 41, -61, -25, -4, 83, 63, -1, 67, -99, -7, -82, 9, 50, -74, 49, -10, -79, 19, 23, 25, -26, -95, 9, 56, 52, 17, -61, -22, 9, 107, 41, 107, 81, 32, -97, -83, -20, -28, -44, 50, 88, 39, -85, 47, 75, -18, 32, 108, 111, 
  2, -39, 39, -40, 86, -76, -39, 73, 5, 23, -99, -48, -73, -90, 108, 114, 13, 68, 11, 11, 51, -33, -49, 2, -67, 24, 0, 57, -67, 20, 72, 91, -3, -86, 34, 19, 61, 71, -41, 108, -92, -78, 48, 30, 53, 91, 29, 44, 30, -100, 0, -8, -60, 45, 72, -117, 96, -71, -68, -60, 27, 89, -11, 37, 54, 50, 67, -105, -59, -84, -25, -30, 37, 7, 98, -11, -33, 6, -87, -101, 60, -111, 46, 26, -54, -89, -73, 0, 101, 101, 17, -90, 57, -111, 13, -8, -1, 9, 50, 78, -108, -38, -82, -13, 36, -54, 102, -27, 31, -17, -13, -68, 44, 94, -19, 2, 8, 2, -9, 26, 106, 10, -40, 40, -45, 47, 78, -111, 88, 89, 8, 52, 13, -111, -57, 39, 98, 31, 62, 44, 98, -18, -107, -39, -6, 1, 85, -41, 77, -3, -7, -12, 36, 59, 108, -30, -108, 11, 5, -26, -55, -48, 14, 106, -110, 46, 24, -90, 1, 96, -26, -108, -95, 70, -102, -73, 99, 12, -36, -50, -50, -16, 57, 60, 60, 59, -86, 79, 96, 82, -73, 32, -36, -79, 45, -82, -36, 76, -72, -54, -88, -74, 4, 13, -10, -117, 63, 54, 86, 27, 1, -46, -37, 99, 77, -48, -61, 89, -46, 33, 111, -64, -13, -114, 101, -9, -98, -61, 42, -79, 23, 100, 86, 27, -16, 117, -13, 46, -88, 16, 52, -42, -96, -24, 70, -12, 37, 7, 57, -87, -60, 96, 112, 63, 46, 94, -91, -7, 17, 16, 96, -88, 18, 26, -106, -93, 100, -80, -80, -7, -33, -73, -64, 73, 85, -63, -23, 32, -49, 101, -108, -25, -89, 74, -29, 15, -5, -58, -90, 21, 35, 117, -33, -69, 21, 3, -4, -35, -14, 97, 91, 31, -93, -81, 107, 100, -45, -90, -69, 110, 36, -60, -91, 74, -84, 72, -76, -41, 26, 115, 37, 77, -12, -19, 68, -48, 40, 119, -101, -55, 62, -63, -76, 5, 78, -98, -64, 108, 75, 17, -71, 111, -96, -55, -78, 104, -65, 25, 39, -22, -20, 85, 22, 115, -41, -95, 75, 72, 36, -51, 47, -109, 19, -94, -20, 103, 71, 84, -53, 114, -88, 17, -62, -85, 63, 86, -55, 63, -39, 6, -55, 115, 8, 67, -82, -1, -14, -76, -41, 72, 29, 50, 56, 70, -30, -6, 113, 10, -41, -65, 23, -24, -55, -73, -30, -103, 108, -19, -112, 6, -60, 80, -116, -58, -51, 92, -38, 49, -30, -92, 12, 77, 36, -59, 21, 99, 61, 101, 33, -14, -13, -25, 70, -24, -24, -39, 37, 6, -115, -25, 106, 42, 28, 60, 88, 0, 68, -57, 101, 102, -9, 3, -19, -4, 96, -39, -65, 22, -60, 68, 52, -13, 92, -31, 42, 102, 28, -36, -81, 71, -23, 30, 3, 1, -103, -3, -36, -83, -53, 34, -119, 79, 42, -39, 99, 48, 30, -8, 87, -91, 103, -91, 108, 78, -99, 17, -101, 83, 36, 26, 84, -114, -75, -19, -14, -91, -116, 107, -38, 95, 29, -27, -22, 89, 108, 20, 83, -33, 60, 69, 22, -45, -1, 109, -24, 74, -100, 61, -15, 0, 54, 40, -76, -53, 108, -117, -37, -120, 102, -28, 0, -70, 100, -36, 44, 45, -41, 9, 69, 53, 108, 77, 95, -76, 90, 45, -37, -100, 62, 87, 86, 93, -32, -74, 109, 102, 96, 56, -80, 66, 84, 84, -118, 7, -77, -75, -89, 59, 56, -54, -114, 88, -16, -108, 89, -72, -25, -22, 78, -44, 110, 28, -76, 70, 1, 22, -15, -83, -44, -88, -109, 113, -19, 95, -3, 73, -74, -27, 12, 100, -26, -95, 14, -38, -99, 28, -59, 33, 88, -102, -24, -1, 59, 83, 106, 19, 45, -66, -82, -39, 91, -101, -91, 51, -19, -91, 19, 35, -6, 17, -46, 52, -5, -108, -30, -95, -78, -85, -52, 1, 108, 92, 79, -79, 117, 68, 3, -39, 73, -18, 87, -65, -43, -71, -33, -43, -48, -28, -17, 30, -49, -109, 59, 68, -82, 100, -82, -45, -16, -86, -45, -44, -69, -83, 52, 76, 3, 76, 86, 117, -45, -33, -2, -63, -69, -84, 112, 27, 78, 40, -28, 31, -50, -20, 54, -42, -98, 96, -69, -102, -8, 44, 53, 64, 119, 12, 38, -79, -76, 34, -18, -5, 54, -19, 32, 99, -55, 50, 8, 63, -56, 79, 0, 38, 46, 81, 97, -42, 69, -79, 91, -44, 67, -51, 43, 91, -94, -30, 116, 88, -86, -33, 24, -69, 12, 72, 48, 71, 63, -55, 88, 104, 52, 21, -62, -3, -90, 92, 10, -70, -43, -42, -23, 76, 1, -113, -34, 5, -10, 76, -103, 33, 50, -58, 70, -24, 12, 57, 87, -93, -39, 20, 52, 98, 97, 45, 40, -81, 23, -74, 51, -23, 78, -90, -71, -74, 11, -72, 28, 42, -90, -3, -54, 49, -117, -53, 66, 79, 23, -106, 104, -98, -23, -118, 82, 13, 28, -20, -105, 30, -36, -56, 7, 42, 102, 94, -26, -3, -36, 91, -6, -40, -114, -52, 8, -24, 102, -109, -18, -1, -6, -14, -64, 79, 45, -21, -90, -115, 108, 60, -84, -39, 4, -94, -3, -92, 50, 56, 20, 31, 71, 90, -14, -67, 97, -120, -76, -22, 0, -63, -68, -47, -8, 16, 54, 11, 72, -102, -98, 41, 85, 10, 66, -45, 30, 89, 63, 37, -25, -117, -10, 1, -6, -41, -10, -2, -119, -40, 34, -55, 78, -108, 73, -2, -70, 13, -84, 7, -93, -115, -4, -69, 90, -66, 58, 10, -50, -63, 32, 56, -105, 102, 36, 104, -3, -28, 98, -81, 97, -15, -100, -73, -28, 66, -82, 62, -34, 41, 35, -103, 24, -27, 41, -2, 102, -18, 81, -105, -38, -40, 117, -22, -58, -107, 67, 18, 120, 0, 52, 93, 53, 57, 120, 43, -90, 91, 30, 106, 89, 68, -31, -60, -33, 36, 70, 90, -108, -48, -77, 98, 91, -67, 47, 120, 84, 95, 40, 22, 4, 67, 
  -107, -22, 33, 96, -3, -26, -28, 0, -29, -97, 11, 39, 95, -63, -62, 67, 39, 112, -43, 32, -61, -75, -75, -55, 62, 68, -7, 83, 108, 57, -85, 64, 80, 104, 9, -37, 63, -84, 111, 65, -106, -102, 34, -19, -83, -56, -99, 42, -64, -91, -4, -54, -64, -36, 63, -68, 4, -93, -109, -52, 51, 106, 91, -21, 50, -41, -108, 48, 112, -83, -112, -116, 78, -87, 108, -87, -18, 77, 90, -29, -22, 71, -62, 67, 66, -40, 89, -27, 96, -37, -93, -80, 20, -5, 5, -8, 67, 40, 67, 4, -116, -38, 87, 96, -26, -14, 111, -41, 37, 9, -71, -78, 103, -88, 105, -43, -30, 64, -75, 68, 72, -31, -16, 26, 74, -73, 37, 41, -24, -21, -10, -68, 38, -47, -82, 96, 79, -55, 33, 25, 80, -50, -77, 20, -8, -16, -90, -11, -25, 16, -57, 14, -20, 75, 100, 3, 109, -41, 1, 64, -93, -82, -69, 113, 34, 0, -22, 31, -33, -111, 111, 13, -13, -76, 85, 1, 6, -7, -88, -55, 18, -50, -70, 44, -47, -24, -8, -92, 88, 60, -9, 63, -104, 87, -88, -19, 56, -33, 74, -86, 86, -48, -40, 18, 53, 87, 89, -38, -35, 109, 22, 90, 80, -94, 66, 40, 108, 45, 0, 42, -34, 62, -57, -42, 27, -8, -50, -98, -38, -49, 42, -108, 58, -117, -72, -10, -32, 5, -90, 98, -89, -109, -74, -15, 77, -33, -13, -39, -17, -65, -64, -32, 79, -100, 84, -2, 71, -9, 102, -12, -64, 100, -32, -46, -97, 6, -43, 96, -99, -28, 50, 81, -43, 80, 23, -74, -50, 14, -23, -102, -110, -111, 64, 48, 80, 64, 45, 111, -16, -97, -85, -18, 65, 16, 85, -14, -86, 115, 23, -103, 81, 86, 69, 58, 57, -30, 86, 49, -4, -75, -76, -37, 27, -66, -2, 98, -81, 88, -92, 59, 24, -78, 105, -59, -55, -51, -44, -21, 43, 19, -48, 18, 98, -6, -54, 6, -74, -90, -83, -38, -11, 24, 11, 25, -84, 45, -55, 95, -98, -68, -107, 44, -91, 5, -89, -75, 61, 99, -2, 2, -37, 87, 41, 21, -36, 72, 16, -63, -27, 57, 42, -12, 32, -37, -52, -6, -106, 99, 19, 38, 65, -108, -39, -60, -100, 80, -16, 56, 54, 6, 52, 61, 69, 21, 88, -107, -45, -44, 45, -113, -73, 4, 87, 88, -96, -100, -77, -11, 44, -26, -12, 97, -85, 10, -75, -1, 6, -105, 62, -21, 10, -11, 32, 43, 84, 21, -4, -101, -47, -26, 3, -51, -108, 32, -10, 6, -3, -21, 18, 57, 33, -75, 93, -51, 110, 72, -111, 91, 15, -13, 34, 113, 97, 2, -88, -65, -93, 45, -17, 64, 9, -67, 6, -58, -49, -52, 100, -48, -35, -54, -18, -89, 34, -14, 96, 0, -115, -10, 8, -75, -23, -37, 43, -91, 43, -82, 89, 37, -4, -64, 20, 52, -103, 22, 101, -5, 47, 33, -75, -50, 88, 16, 94, -89, 15, -59, -28, -90, 92, -3, 96, -107, -88, 89, 50, -110, -69, -95, -15, 4, 75, 47, 49, 92, -103, 52, 27, -106, 60, 14, 2, -100, -107, 70, -23, -111, -36, -66, 11, -38, -59, -22, 82, 58, -73, -66, -13, 36, -100, 36, 75, 41, 110, -117, -17, 87, -54, -35, -45, -10, 106, -31, 87, 18, -34, -74, -64, -22, 92, -118, 4, -89, 17, 65, -104, 81, 79, -17, -9, 52, -28, -95, -65, 62, 32, -64, 45, -106, -34, -16, -71, -14, 16, -52, -27, -100, -40, -9, -6, 12, -64, -99, 45, 100, 23, 59, -52, 108, 88, 99, -117, 97, 19, 87, 57, 66, 14, -97, -4, -86, -33, -38, 28, -1, -28, 12, -114, 91, -86, 26, 33, 16, 38, 80, -88, -98, -43, 81, 57, -110, -24, 18, 60, 5, 116, 7, -41, -26, 8, 14, -55, -105, -79, -79, -15, 31, 98, -97, 89, 103, -67, 85, 41, 62, -111, -89, -104, -58, -82, -33, 27, -1, -45, 69, -68, 98, -109, 53, 6, 37, -1, 48, -68, -8, 56, -57, 41, -46, 26, 13, 55, -106, 105, 45, 52, -75, -95, -112, -111, 91, -108, 70, 98, 55, -110, -26, -7, 45, 2, 73, 111, -61, -71, 69, 31, -61, -5, 10, 75, 58, 41, -29, 15, -55, 4, -3, -66, -97, 14, -32, -26, 47, 18, 7, -70, 4, 84, 6, 29, 29, -106, 62, -98, -108, -88, 20, 33, 111, 93, -75, 71, -114, -42, 65, 45, 15, -45, -53, 33, -112, 80, 21, 60, -9, 17, 26, -31, -53, 25, -22, -27, -105, -2, 96, 1, 67, 22, -46, -44, 27, -12, 36, -32, -104, -18, 22, -66, -106, 3, 70, -70, 10, -90, 106, 111, -80, -59, 12, -65, 92, 74, 23, -17, 3, 0, -90, -87, 112, -96, -74, 0, -85, -43, -20, -51, -62, -94, 11, 26, -72, -75, 29, -84, -103, 111, -4, -59, 93, -5, -114, 59, -95, -28, -101, 14, 31, 53, 22, -23, 20, -101, 102, -99, 57, 76, -63, -50, 93, 50, -11, 94, 78, 87, 99, -6, -20, 59, -93, -47, -46, -10, 25, 99, 65, 74, 50, 4, -88, -103, -47, -93, -40, 34, 71, 51, 14, 108, -1, 45, -7, -63, -110, -83, -4, 32, -73, 41, 67, -104, 28, -13, 80, -39, 73, -101, 13, 103, 78, 13, 29, -32, -106, 81, 78, -98, 61, -90, -110, -46, 81, 42, 106, -12, -48, -32, -86, 50, 28, -107, -84, -39, -32, -15, -12, 59, 63, 110, 95, 73, -57, -61, -38, -89, -71, -112, 8, -22, 60, -7, 98, -6, -29, -65, -48, 69, -47, 106, -1, -2, -6, 58, 18, 7, -53, 3, 55, -114, -24, -27, -6, -1, 91, 89, -14, -93, -33, -75, -6, -103, 80, -52, 11, 24, -89, 17, 80, -115, 93, -105, -97, -28, 70, -15, 109, -12, 15, -21, -36, -105, -86, 27, 50, 115, -50, -32, 65, -100, -66, -48, 42, 
  -1, -110, 29, 34, 99, -56, -1, 102, 43, -39, -56, 36, -84, 112, 36, 62, -82, 93, -14, -27, 112, 19, -105, -14, 87, -23, -35, -69, -25, 62, -65, -79, -21, 25, 38, -52, -68, 87, -105, -100, -2, -96, 102, -10, -34, -27, 101, 104, -61, 31, -21, -27, 112, -105, 81, 98, 91, 25, 96, 44, -31, -45, -53, 64, -20, 76, 47, 99, 23, -99, -64, -104, -24, -81, 34, 14, -82, 86, 5, 10, -41, 1, 34, -89, 61, -79, 87, -53, -32, 113, -66, 110, 115, 64, -37, 8, -77, 42, 33, -39, -34, 47, 110, -16, 70, 79, 39, 63, 89, -61, 50, 89, -110, -78, 4, 83, -82, 51, 11, 114, -33, -21, -20, -16, -115, -10, -20, -104, 86, -117, 12, -92, 51, 72, -23, 100, -49, 109, -86, 64, 67, 107, 95, 61, -82, 53, -109, 105, -36, -15, 1, -71, 98, -75, 1, -120, -70, 24, 55, -49, -14, -72, 54, -56, -118, 102, -69, -89, 73, -9, -16, -102, 10, 34, -15, 98, 84, 15, 28, -20, 19, 7, -48, -119, -108, -24, -117, -77, -101, 1, 20, -15, -106, 80, 104, -67, -44, 110, 62, -9, -22, -67, -65, -82, 94, 38, 15, -42, 74, -17, -41, -20, -65, 21, -46, -51, -44, -1, -58, 70, -110, 52, -32, 25, 35, -79, 67, -55, 103, 101, 100, 6, -71, 63, 40, 59, 65, -12, -44, 4, -21, -21, -3, -31, 23, 22, 13, -18, -101, 49, -19, 52, -20, -34, -18, 15, -64, 51, -48, -67, 21, 68, -67, 106, -60, 49, -57, -51, 31, 82, 92, 31, -17, 30, 65, -33, 32, 80, -107, -50, 87, 73, 29, 33, 52, -55, 62, -27, 104, 100, -15, 99, -111, 68, 12, 94, -120, -100, 55, 50, -117, 44, 7, -32, -41, -27, 50, 56, -64, 16, 104, 67, -35, 81, -3, 83, 46, -113, 1, 5, -40, -23, 60, -67, 2, -101, -20, 30, -29, 8, -32, -77, 39, 4, 54, -38, -99, -70, 25, -37, -40, 30, -86, 103, 1, -65, 91, -106, 45, 44, 96, -28, 114, 110, -71, 1, 85, 67, -44, -51, -19, -89, 84, 94, 68, -76, 106, 51, 36, 51, -34, -48, -73, -84, -22, 92, 98, 13, 17, 80, -6, 93, -27, 93, 17, -12, -46, -67, -26, -101, -102, -90, -75, 96, -74, -100, -68, -17, 101, 118, 101, -109, 53, 3, -59, -41, 92, -95, 73, 5, 78, 44, 118, -106, 53, -1, 26, -103, 54, 23, -87, 74, 28, -89, -28, 56, -73, 83, -7, -68, 64, 59, -98, 95, -102, -83, -30, -70, 108, -12, 42, 28, 20, 65, -84, -52, 9, 2, 54, -90, 24, 40, -36, 30, 101, 111, -14, 58, 24, -22, -59, -87, -67, 14, -85, 35, 108, 33, -109, 49, -85, 33, 22, 2, -26, 84, -103, -94, -14, -105, 107, 60, 38, 2, -82, -8, 60, 71, 2, -96, 52, 105, -13, 31, 1, -103, -70, 84, -30, 21, 98, 4, 36, -60, 18, -53, -68, -91, -24, -80, -75, 77, -27, 43, 43, 69, -109, 111, -21, 92, -12, 108, -96, -60, -25, 48, -66, 82, -4, -60, 18, 53, -33, 63, 107, 44, 16, 78, 65, -111, 88, -41, 7, -46, -56, 33, 49, -17, 99, 10, -55, 64, 78, 42, -49, -11, 52, 3, 86, -91, -110, 17, 14, -109, 69, -84, 39, 105, -8, 59, 100, 99, -38, -67, 40, -43, -70, -46, -64, 38, -48, -81, 84, -92, 13, 13, 58, -12, 32, -51, -58, 78, -113, -37, -58, -108, -52, -107, -96, 19, 61, 66, 49, 53, 82, -6, -45, -64, -56, -103, -91, 85, -101, -69, 52, 65, -120, 19, 76, -89, 30, 59, -72, 96, 49, -68, 44, -67, -98, 5, 94, 15, -62, -108, -35, 72, -99, 66, -21, 85, 64, 76, 13, 102, 100, -16, -71, 74, 13, -100, 43, -103, 99, 38, -28, 30, 4, -19, 80, -50, 45, 2, 4, 81, -65, -83, -74, -58, 60, 52, 78, -109, -91, 15, -73, 27, -104, 55, -71, 101, 33, -54, 15, -110, 59, -45, 66, 2, -40, 44, -111, -71, -21, 82, 38, 13, -40, 13, 82, -80, 54, 81, -55, 1, 30, 46, 99, -94, 57, -109, -9, -63, 37, -97, 50, -10, 10, -60, 84, 91, 104, 49, -102, -80, 36, 113, 12, 99, 105, -46, -95, -9, 0, -99, 14, 82, 91, -11, 34, -80, 12, 45, -75, -47, -48, -20, 20, 6, -47, 84, -58, 28, -59, 87, -28, -59, -68, 107, -10, -92, -76, -51, -107, -76, -47, 32, -28, 21, 95, -48, 73, 102, -108, -51, -44, -65, -24, 13, 9, -4, -76, -57, -28, -14, -85, 8, 97, -96, 40, 66, -41, 88, 41, -42, -86, 93, -42, 71, 16, 60, 50, 12, -24, 70, 3, 59, 27, 71, 17, 27, -62, -62, 66, 32, -68, 1, 60, -80, 86, -95, 45, -36, 73, 3, -30, 43, 73, 8, -90, 98, -66, 65, 51, 32, -21, -76, -83, 22, 32, -76, -97, -97, -30, 77, -56, 30, 89, 17, -63, 1, 52, -61, -7, -106, -111, -86, -90, -76, -97, -67, 43, -46, -18, 75, 9, -62, 97, 42, 47, 57, 70, 59, 28, 83, -109, -16, 10, 106, -87, -86, 33, 62, 98, 25, -102, 113, -17, 43, 89, 4, 113, 34, -96, 94, 105, 111, 7, 80, -53, 26, 34, 116, 108, 50, -52, 68, -78, 19, 47, -24, -75, -47, -96, 91, -58, 17, -97, 29, -98, -57, -66, -84, 40, -84, 22, -13, 45, 96, -77, -55, 20, -45, 2, -81, -40, -75, -91, -66, 34, 69, -62, 1, -7, -116, 98, -19, 50, 4, 56, 81, 82, 68, 22, -37, 99, -76, -32, 56, 106, 82, -66, 21, -16, 34, 53, 102, 73, -30, -69, -78, 11, 6, 64, -67, -95, -13, 42, 96, 96, 71, -14, 38, 14, 63, 40, -12, -17, 66, 5, 47, 94, -13, -115, -77, -76, 90, -57, 106, 96, -22, 
  64, 63, 63, 16, -89, -51, -85, 54, -7, 13, 12, 103, 71, 79, -99, -12, 118, 78, -28, 14, 29, -59, 94, -96, -96, -97, 37, 76, -75, -75, 54, -72, -32, -21, -47, 75, 23, -77, 56, -98, -51, 79, -31, 60, 39, 82, 21, 24, -47, -5, 23, 35, -84, -42, -42, 91, 20, 68, -12, -115, -70, -63, 84, -19, -42, -59, -13, -35, 17, -52, -76, -41, -83, 42, -31, 107, 83, 8, -96, 84, 68, 69, 94, -113, 107, -80, -82, 78, -23, -113, 64, -73, 82, 43, 94, 58, 105, 13, 109, -38, 89, -1, -24, -54, -24, 2, -68, 113, -7, -55, 83, -110, -93, -56, -95, 53, 86, 19, -20, 110, -36, -50, 62, -76, -30, -17, -10, 33, 50, -41, 64, 36, 53, -62, -41, 46, -22, 97, 0, -67, 20, -38, -38, -101, -79, -64, -35, -56, 114, -26, -21, 12, 21, 56, 8, 100, -32, 52, 80, -71, -64, -67, 53, -81, 32, 96, 54, -105, -107, 16, 49, 68, -75, -51, 53, -92, 111, 91, -12, 23, -25, -81, -93, -82, -94, -39, -93, -46, -1, 12, -33, -11, 35, -50, 24, 28, 78, 60, -71, 71, 18, -34, 52, 35, 77, -56, 93, 102, 12, 93, 44, 37, -29, -87, -23, -85, -52, -24, -65, 56, 11, -32, 94, 27, -57, -46, -106, 99, -117, 27, 100, -2, 53, -82, 22, -106, 44, 46, -123, 43, 52, -109, 43, -58, 59, 96, -30, -118, -47, -5, -58, 10, -41, -108, 3, 63, 0, -82, -17, -114, 80, -101, -22, -94, -88, 25, 93, 28, 27, 70, -47, 9, 58, -58, 106, -116, -7, 9, -51, 30, 58, -110, -87, 18, 87, 57, -10, -35, 90, 99, 102, 21, 14, 96, 55, -5, -20, -99, -87, 99, -1, -68, -55, -106, -32, -11, 27, -76, 0, -105, 38, 52, -93, 56, 73, 1, -3, 59, -48, 26, 0, 4, 24, -79, -54, -111, -18, -108, 70, -51, 17, -17, -77, 50, 68, 63, -105, 6, 83, -87, -108, -34, 94, -20, -99, 66, -31, -79, -42, 21, -106, -87, -39, 58, -101, 66, -28, 8, -86, -29, 94, 49, -47, -53, 66, -95, 1, 25, 21, -82, 30, 107, -42, -106, -73, -42, -60, 55, -64, -68, -89, -40, 107, 27, 75, 45, 0, 76, 3, -42, 11, -90, -9, -116, 106, -32, 32, 46, 20, 32, -94, -43, 50, 34, 78, -80, 37, 55, -107, -23, 83, -108, 95, 46, 100, -92, 35, -12, 26, -5, 0, -27, 104, -100, 3, 80, -11, 10, -85, 47, -64, 36, -29, -27, 87, 27, 15, 45, 95, -42, 1, -74, -6, 32, -72, -24, -83, 23, -34, -11, 98, -84, 90, -49, -22, 30, -107, -84, -92, -95, 121, -16, -2, 58, 24, -61, -79, -48, -80, -101, 39, 120, -58, 59, -34, 36, 21, -25, -48, -23, 28, -67, 88, -59, 22, -5, 9, -32, -27, -69, 8, 103, 60, -44, 78, 32, 126, -41, 72, -82, -92, -97, 8, 60, 116, 77, -72, 101, 6, -28, 98, 61, -106, 107, 86, -11, -11, -37, -21, -30, -36, 41, -32, 118, -98, -32, -18, -100, 39, -37, 17, 63, 68, 46, -39, -105, 55, -15, -99, -103, 67, -13, 10, 74, -14, -63, 109, -115, 48, -43, -104, -109, 107, 37, 59, 58, -45, 77, -8, 40, 5, 37, -39, -33, 97, -25, 18, -88, -87, -28, 43, 55, 100, 6, -73, 53, -84, -23, 32, 8, 63, -123, -29, -23, 38, -52, -78, 68, -58, -28, -97, 17, 32, 10, 33, 74, -78, 21, 96, -116, -115, 6, 41, -96, -104, 72, 8, -25, 34, -28, -74, 43, 66, -62, -71, -18, 97, 20, 101, -70, 39, -97, 94, -109, -68, -16, -16, 65, -78, -73, 92, 36, 12, -40, 77, 25, -31, 79, 56, -90, -118, 1, -78, -93, -2, -40, 25, 28, -74, -10, -8, 29, 57, 10, -88, 61, 55, -36, 41, 26, 24, 89, 74, 42, 68, 98, -85, -39, 61, 27, -38, -28, 74, 26, 26, 11, -73, -26, 66, 108, -83, -52, 80, -34, -79, -112, 21, -62, 56, -42, 54, 68, 35, 73, -101, -39, 27, -36, -109, -84, 67, -87, -33, -13, 19, -17, -15, -25, 93, 66, -76, -86, 107, -97, 83, 96, 3, 28, 86, 96, -68, -25, 88, -83, 98, 33, 37, 56, -88, -63, 50, -64, -18, 86, 37, -23, -86, -62, -104, 62, -78, 4, 58, 35, 96, 35, -79, 18, 84, -115, 0, 74, 37, -47, 48, 81, 58, 0, 105, 97, 32, -89, -87, -70, 93, -98, -60, -78, -82, -73, 19, -8, 92, 11, 41, 92, 105, 11, 25, 4, -34, -83, 87, -9, -28, -96, 11, -85, 40, -102, -84, -33, -99, -69, 55, -7, -52, -93, -85, -89, -47, -74, 41, -29, 99, 122, 43, -6, -73, 53, 96, -45, -19, 14, 35, -78, -78, -29, -96, -9, -31, -54, 30, -88, 55, 45, 69, -53, 71, 21, 53, 97, 6, -78, 50, 82, -11, 28, 57, 83, 7, -51, 31, -8, -90, -42, -47, 5, -59, 79, -96, -104, 87, -97, -4, -67, -66, -94, 1, 43, 28, 75, -45, -54, 94, 5, 36, -104, -101, 77, -57, -109, -10, -93, 102, 109, -98, 35, -45, -20, 105, -41, 30, 11, 78, -42, -105, -75, 86, 43, -9, -38, -83, -47, -5, -25, 78, 37, -23, -90, -93, 75, -82, 24, -17, -55, -79, -73, -42, -32, 109, 88, -29, -30, 22, -23, 82, -97, -12, 84, 17, 36, 44, 81, 14, -74, -84, 22, 104, -31, 36, 58, -1, -1, -51, 75, -24, -81, -19, -117, 101, -67, -14, 26, -70, 63, 103, -18, 100, 32, -114, -40, 0, 82, 22, -68, -2, -44, -46, 51, 101, -10, 69, -116, 28, 90, -97, 17, 55, -105, 11, -47, -101, 44, 39, 47, 21, 16, -32, -57, -37, -20, 66, 74, 23, 85, -96, 84, 109, 50, 10, -61, -100, -45, -75, -45, -93, 35, 80, 29, 
  -77, -78, 66, -21, -17, -16, -4, -57, -87, -60, -63, 50, -74, -103, 21, 69, -46, -10, 54, -100, -38, -21, 89, -85, -20, 62, -85, -16, 30, -27, 80, 99, -106, 61, -70, 69, -37, -38, -21, -39, -21, -50, 58, -4, -30, 104, 100, 117, 0, -104, -100, 62, -95, 80, 74, -98, -37, 27, -29, -49, -83, 40, 70, -47, -46, -63, -30, 25, -95, -82, 119, -14, -47, -37, 34, -100, 56, -28, 94, -93, 58, 71, 107, 68, 66, 92, 94, 110, -71, 25, 32, -18, -92, 88, -70, 27, -12, -67, -19, 35, -89, -13, -43, -99, -29, -67, -94, 2, 4, -75, -109, -26, -98, -91, -2, 40, -91, 8, 6, 79, -30, 110, -98, -35, 33, -8, 98, 51, -21, -46, 13, -24, -75, 90, -36, -41, -105, 41, 77, 113, -56, -59, -12, 84, -94, 22, -10, -33, 39, -11, 76, -4, 74, -91, 47, -64, -49, 57, -5, -8, -40, -58, -44, 39, 85, -95, 19, 46, -60, 119, 110, -83, 70, -97, -55, -82, -101, -22, -68, 31, -5, 108, 7, 21, 94, 4, 50, 59, -35, -17, -104, -43, -92, -85, 52, 30, -37, 68, 9, 36, 62, 7, 6, 61, -75, 91, -113, 57, 80, -34, -103, -64, 90, 12, 45, -78, 43, -13, 91, -25, 66, -20, 98, 92, 93, 30, -14, -37, 98, -42, -97, 54, 36, 92, -83, -16, 59, -97, -114, 103, 3, -121, 55, 66, 26, 60, -87, -54, 60, 15, 63, 39, 42, -23, -102, 35, 16, 45, 19, -64, -8, -2, 53, -3, 13, 87, 78, 40, -44, -93, -29, 0, 104, -12, 84, -31, 55, -92, 8, -40, 96, 101, 84, -28, -79, -35, 15, -28, -100, 98, -8, 17, 32, 32, 49, -71, 91, -96, -91, -82, 27, -110, -65, -80, -46, -93, -114, 83, 31, 24, 61, -36, 37, 106, 62, 57, 49, -95, -53, 75, 27, -93, -91, -73, 97, 12, 52, 22, -59, 104, -57, 9, 114, -71, 25, 39, 115, -37, -79, -74, 95, 73, 45, 17, 11, 16, -76, -82, 75, -61, -82, -63, 85, -12, 98, -44, 84, 118, 78, -74, -103, -6, -75, 55, 5, 74, -26, -108, 22, -40, 80, 1, -5, -24, 25, -8, -59, -72, -46, -33, -27, 59, 93, -100, 22, -9, -6, 84, -75, -95, -104, -19, 7, -84, 118, 112, -73, -72, -1, 40, 32, 8, -80, -107, -9, 93, 72, -8, 48, 66, -31, -107, 84, -14, 88, -5, -113, -43, -16, 18, 111, -49, -3, -40, 108, 46, 48, 106, -43, 55, 49, -34, 43, 110, 58, 100, 1, 44, -73, -93, 79, -75, 10, -55, -63, -54, 94, -81, 39, -67, -30, 95, 43, -43, 15, -81, 9, 44, 68, -95, 87, -55, -112, -69, 17, -43, 68, 72, -64, 107, 21, 78, 66, 85, 83, 30, 51, 36, -105, -86, 4, -44, -28, -106, -36, -71, -23, -80, -37, 28, 9, -67, 71, 9, -33, -79, -95, 61, 11, 60, -59, -15, -7, 16, 62, 34, -24, -7, -33, 91, 59, -45, -35, -98, 72, -21, 31, 94, 120, 106, -28, 77, 90, 61, -1, 85, 33, -89, 95, -90, -78, 109, 52, -3, 6, 102, 36, 94, -75, 65, -63, -28, 32, 50, 20, -70, 58, -57, -30, 35, -71, 30, -89, -92, 26, 78, 88, 62, -108, 39, 5, 27, 35, 62, -27, 71, -41, -100, 76, -18, -101, -15, 29, 94, 80, -18, -36, 92, 99, 9, 83, -30, -96, 21, -89, -23, -90, 58, 90, 37, 8, 34, -6, -58, 48, -44, -93, -18, -16, 18, 49, -78, 83, -35, 92, 84, -122, -112, -113, 34, -112, 39, -63, 35, -4, -53, -1, -101, -118, -22, -120, -90, -23, 11, 17, -110, 65, -31, 83, 21, 90, 37, 106, 12, 45, -72, -84, 5, -40, -57, 65, -106, 82, -113, 85, 16, 46, -33, 15, 61, -9, 107, -30, -2, 8, -71, 53, 51, -26, 73, 17, 38, 107, 5, 34, 2, 25, -102, 30, 97, 10, 82, -69, 90, -56, 41, 36, -96, -29, -107, -14, 46, -60, 87, -85, 97, -55, -30, -34, 44, 103, 28, -78, -77, -26, -22, 64, -40, 52, -90, -76, -95, 8, 26, 7, 88, -63, -3, -76, -86, -62, 88, -62, -28, -80, 8, 25, -33, 93, -68, -65, 99, 114, 93, -60, -53, -20, -13, 31, -5, 27, -34, 55, 35, 100, 85, -42, -12, -101, 24, -20, 112, -80, 25, 13, 21, -57, -82, 24, -16, 63, -49, -25, 87, 46, 59, 38, -111, -70, 44, 9, 106, 29, 49, -46, -68, 17, -67, -64, 20, -108, 53, 24, 99, 51, 40, -37, 37, -12, 77, 96, 11, -107, 26, 77, -112, -64, -30, -15, 15, 108, 17, 60, -106, 1, -66, 66, 37, 6, -77, -82, 41, -40, 38, 112, 93, -52, 75, 12, -15, -108, -90, 94, 85, -14, 46, -69, 59, -47, 57, 110, -41, 117, -30, -42, -8, -85, -15, 14, -17, 110, 15, -45, 19, 112, 76, -80, 80, -63, 78, 0, 114, 11, 96, -57, 123, -7, -77, -10, 62, -3, 69, 111, 106, 21, 12, 8, 56, -37, 17, 41, 3, -83, -103, -39, -80, -5, -10, -61, -99, -102, -64, -92, 8, -73, -29, -89, -101, -47, -34, 74, -76, -33, -7, 26, 90, -105, 76, -53, -30, -50, 56, 81, 111, 79, -100, -95, 43, 61, 44, -92, 0, 23, -65, -78, 19, -38, -52, 38, 59, -23, 72, -2, -82, 27, 15, 35, -100, -28, 35, -48, -33, 90, -107, -68, -107, -95, -64, 16, -8, -122, 103, 50, -91, 94, -92, 36, 79, -32, -40, 70, 12, 107, 77, 88, -11, 100, -22, -69, 39, 97, 94, -18, -82, 47, 71, -57, -77, -104, -14, 106, -66, 78, -1, -62, -21, -35, 26, 15, 6, 10, 58, -87, -67, 81, 7, 107, -23, -94, -73, 90, 46, 75, -33, -107, -30, 15, -115, -70, -57, -112, -51, 31, -67, 20, -12, -102, 20, 8, 7, 
  -43, -25, -74, 97, 45, -8, 77, 22, 100, 15, -106, -95, -12, -54, -78, 18, -18, 15, -107, -68, -108, -73, 86, -52, 39, 74, 89, -59, 60, 66, -119, -93, 24, -68, -96, 72, -12, 84, -8, -84, -49, 84, -14, -13, 96, 29, 40, -105, -63, -87, 41, 107, 70, 22, 114, 100, 74, 34, 9, -48, 40, -57, 42, 2, 43, -12, 39, 38, 44, -66, 79, 50, 45, 0, -106, -110, 64, -52, -31, 3, 23, -55, 88, -43, -66, 113, 107, 104, -51, -88, -40, 42, -50, -102, -40, -65, -56, 96, 50, -5, -20, 52, -75, -17, 24, 13, 80, -23, -6, 116, 25, -106, 68, -96, 26, -16, -42, -99, 38, -57, -75, -15, 31, 32, 30, 95, 99, 99, 89, 74, 114, 84, -14, 112, 9, -39, -103, 43, 58, 0, -29, 113, -44, -55, 69, -99, -63, 33, -104, -38, -66, -83, 38, -2, -96, 90, 92, -52, 89, 75, -15, -14, 94, 105, 87, -6, -117, 53, 39, -65, -38, 38, -33, 92, -6, 5, 89, -43, -26, -74, -7, -81, -22, -80, -113, -101, 11, -71, -33, -32, -52, -59, -55, 41, -117, -5, -20, -14, 98, -110, -2, 90, 40, -35, 103, 30, -42, -31, -61, -101, 8, 44, 89, 79, 34, -64, 37, -93, 2, 25, 102, -54, 24, -36, 70, 112, -94, -84, -5, -104, 65, 5, -79, -102, -56, 69, -100, 69, -108, -38, 70, 103, -61, -57, 109, -85, -42, 73, 107, 41, -105, 17, -51, -49, -86, -8, -62, -34, 18, -29, 80, -72, -5, 37, 5, -82, 50, 0, 54, -33, 74, -1, -42, 104, -83, 38, -37, 12, -23, -66, -92, 119, 67, -42, -68, -74, 0, 103, 92, -30, -88, 61, 90, -32, -20, -13, 18, -37, 67, -17, 14, 57, 53, 65, 3, 87, 113, 4, -63, -107, 53, -67, -10, 109, -97, 71, 19, 3, 75, -82, 69, 40, -89, -41, 104, 71, 92, 55, -67, -58, 62, -11, 106, 14, -114, -61, 35, 40, -29, 7, -116, 48, 55, 95, 107, 80, -10, 19, -101, 84, -18, -74, -19, 83, 50, -25, -33, 108, -33, -10, 83, 29, 17, -9, -94, 102, 30, -105, 91, 7, 49, -21, 97, -109, 36, 83, 51, 79, 97, -52, 96, -64, -78, 67, -30, -26, -33, -4, 94, -93, 112, -106, 92, -46, 77, 36, -55, 2, 1, 67, -43, -5, -74, 102, 61, 35, 48, 94, 25, -54, -93, -2, 82, -10, -82, -80, -71, 65, 72, 70, -102, -6, -40, 6, 36, 57, -78, 67, -50, 104, -11, 49, -85, 0, 104, -58, 30, -108, -45, 53, 44, -52, -64, 29, 115, -24, 106, 35, 86, -88, 37, -32, -98, 32, -72, -21, -55, 18, 116, -85, 9, -48, 104, -29, -107, -75, -86, 16, 82, -5, 36, 113, -57, 41, 44, 67, -91, -1, 35, 111, 50, 5, -101, 106, -5, -1, -86, 16, 80, 40, 35, -43, -79, -36, 69, -74, 64, 67, -8, 75, -39, 83, -81, -55, 70, -55, -39, -23, 79, -102, 4, -38, -85, 96, 15, -20, -57, -2, 71, 89, 48, -8, 87, 86, -56, 32, -106, 40, -20, 2, 87, -72, -102, 8, 99, -63, 92, 68, 47, 60, -86, 12, 0, 101, 63, 112, 12, -43, 98, -87, 59, -4, 114, 30, 78, 19, 25, 26, -109, 34, 11, -91, 97, 46, -109, -55, 44, 43, 85, 89, -110, -36, 2, -63, 80, -44, -68, -5, 77, -47, -33, -58, 65, 43, -15, 104, 49, -102, -33, 0, -74, -6, 8, 23, -41, -105, 42, 6, 3, 10, -84, 55, 90, -80, -43, 8, -22, 87, 16, 98, -62, 48, -104, -25, -17, 23, 75, 15, 85, 104, 67, -105, 18, -29, -26, 43, 47, 33, -95, 4, -25, 52, -54, -37, 34, 100, -54, -25, 46, -93, -86, -2, -92, -61, 5, -91, -112, 16, -105, 45, 23, 43, -25, 107, 54, -31, -12, 109, 65, 82, -92, 31, -81, -56, 58, -20, -91, 44, -40, -61, -7, 83, 7, -84, 61, 91, 58, 82, 13, 26, 68, -4, 41, 21, -58, -43, 98, -84, -92, -103, -75, 21, 68, 50, 84, -47, 37, -117, 2, 19, 93, -65, -62, 79, 92, 39, 31, -28, -16, 89, -112, 105, -67, -28, -37, -39, -13, -67, -75, 106, 40, 16, 88, 81, 10, 64, 33, 49, 77, 72, -110, -45, 100, 101, 7, 36, -3, -44, -83, -89, 49, -88, -26, 117, 10, 48, -65, 70, 89, -11, -6, 0, 72, 22, -90, -24, 102, -72, -104, -50, -55, -79, 91, 109, 11, -40, 58, 112, -63, 84, 69, -44, -97, 97, 2, 9, 71, 0, 68, 112, -80, 100, 15, -58, -62, 1, -65, -106, 48, 2, -1, 13, -15, -31, -74, 28, -108, 31, 48, -20, -98, -101, 42, -55, 78, 80, 46, 99, -42, -27, -30, -105, 92, 12, -112, -115, 49, 104, -47, -83, 87, -44, 108, -7, 31, 103, 88, 55, -50, -46, -116, -14, -63, 32, 66, 4, 60, -111, 55, -24, 75, -100, 61, 92, -106, -108, -60, -15, -33, -6, -57, -2, 48, 10, -51, 58, 55, -52, -66, -33, -89, -40, -116, 11, 35, -33, 53, 15, 85, 94, -85, 95, -89, -60, 49, 21, -1, 46, -51, -90, -89, -70, 29, 89, -30, 49, 68, -2, -29, 111, 68, 19, -53, -15, 107, -16, -101, 63, 78, 108, 84, -38, 15, 19, 111, -27, 37, 117, -104, -75, 27, 17, -91, -14, -70, 45, -19, 81, 32, -56, 59, -63, 36, 29, -101, -10, -16, 39, 65, -68, 106, -102, 102, -41, 65, -74, -34, -42, 42, -105, 79, 25, 71, 118, 80, 119, 54, 99, -44, -29, -55, -72, 25, 113, 61, 26, 40, 2, 104, 44, 9, -44, 6, 30, -107, -15, -51, 4, -98, -43, -105, 109, -5, -39, 13, -30, -104, 76, -38, -100, -57, 19, 77, 69, 102, 76, 15, 22, -84, 96, -37, 107, 75, 99, 100, 91, 103, -1, 96, 96, 
  38, -61, -9, 106, -20, 23, -21, -48, -100, 3, -46, -59, -86, 79, -2, -75, -36, -24, -11, 29, 101, 101, -39, -16, 33, -48, -10, 8, 96, -39, -19, -85, -97, 45, 68, -82, 104, 26, 65, 102, 76, -84, 118, 21, 103, 58, 108, 55, 104, -108, -20, 39, -12, -1, 53, -80, -79, 58, -79, 53, -16, 48, -76, 93, -75, -87, 101, -81, -103, 57, -60, 65, -44, 30, 109, 116, -56, -45, -85, 13, 38, 40, -11, -13, -96, -16, -58, -7, 15, -71, -24, 32, -104, 39, 91, 95, 120, -92, 44, -13, -6, -99, 2, 83, -101, -93, -65, 51, -26, 61, -83, -103, -42, 37, 59, -92, -43, -80, 106, 108, 37, 45, -44, 36, 19, 51, -76, 100, -86, 73, 9, 43, 22, -99, 115, 77, 66, -80, 66, 54, 98, -23, 6, 63, -83, -43, -10, -12, -99, 8, -51, 19, -53, 22, -36, 49, -80, -32, 7, -31, 56, -71, -108, 59, 57, 5, -7, -80, -16, 89, -38, 31, 80, -94, -24, -55, 63, -15, 71, 7, 67, 10, 101, 90, -85, 87, 34, -46, 68, 53, 0, 105, 67, -70, 80, -103, 8, 101, -101, 51, -110, 85, 74, 84, -55, 6, -60, 95, 20, 89, -12, 28, -63, -87, 0, 109, -110, 97, -16, 72, 64, 12, -18, 98, 20, 71, 26, -35, 67, 101, -68, -117, -50, -3, 82, 31, 34, 104, 48, 87, 75, 104, -3, 17, -18, -101, 90, 2, -117, -56, 24, -88, 10, 106, 79, -8, -72, -11, -52, 77, -77, -10, -89, -32, 1, -100, -90, 54, 6, 38, 86, 26, 41, 93, -115, 96, 77, 72, -13, -17, -101, -88, -82, -89, 104, -66, -91, 78, -100, -54, -31, 72, -88, -75, 103, 3, 15, 97, -88, -96, -65, 64, 79, -8, 91, 104, -10, 102, 52, 65, 33, 89, -29, -3, -32, 49, -5, 59, -88, -109, -92, -94, -36, -45, -55, -44, -8, -24, 20, 71, -72, -68, -16, 5, -88, -83, 69, 28, 23, -110, -29, -52, -73, 4, 56, -24, -106, 45, 52, -8, -79, 28, -98, -40, 28, 67, -73, -61, 68, 80, 114, -78, -38, 32, -43, 21, -37, 61, 108, 107, -56, 46, 19, -58, 87, 9, -104, 64, 61, -109, -30, 96, 62, 66, 44, 76, -107, -36, 61, -90, -28, -28, -66, -47, -1, -25, -38, 4, 98, -72, -67, 109, -77, 23, -3, 44, 26, -88, -58, -96, -12, -95, 64, 118, 14, -29, -34, 41, 86, 110, 90, 88, 18, 57, -20, 57, -31, -58, 5, 11, 48, 79, -32, -40, 119, 115, 16, 65, 69, -65, 86, -30, -97, -5, -63, 26, -29, 32, -39, -2, 38, -60, 91, 0, 112, -90, -32, 25, -101, 53, -6, 49, -24, 109, 63, 44, 89, -101, -28, -58, 94, -96, 118, 45, -7, 82, -92, -77, 44, -8, 105, 122, 18, -73, -78, -102, 17, -98, -21, 34, -1, -53, -32, 90, 9, -93, -36, 1, 105, -86, -99, -15, 28, 38, -14, 47, -18, -77, -19, 104, -52, -80, 87, -69, 7, 28, -33, -13, 104, 16, -83, -87, -59, -57, 45, -53, -75, -55, -44, -3, -99, 31, 92, -38, -2, -16, 104, -7, 71, -20, 84, 43, 30, -51, -17, 80, 79, 27, 78, 108, 7, -97, -10, 48, -103, 99, -12, -40, 110, -93, -107, -83, 43, -54, -68, -3, -26, -103, 8, 25, 104, 40, 106, -2, 46, -95, -72, -82, 106, -21, 46, 9, -67, 46, -87, -100, -40, -115, 99, 111, -62, -91, 26, 109, -61, -50, -44, 23, -27, 110, 31, -101, -29, 82, 43, 15, -79, -29, 24, 67, 88, -14, -90, 10, -58, 69, -73, 83, -81, 41, 48, 75, 27, -23, -37, 33, -53, -67, 90, 45, -46, 83, 20, 24, -99, 4, -70, 41, -25, -55, 74, 109, 55, -98, -14, -91, 2, -69, 83, 43, 15, 87, 70, -47, -54, 45, 43, -100, 57, 72, 94, 39, 44, 108, -36, -13, 11, 33, -20, 76, -71, 66, 66, 2, -110, 23, 106, 47, -96, 106, 70, -117, 4, 39, -108, 66, 102, -21, -101, 97, -33, -62, -116, 44, 20, 9, -106, -110, -71, -13, -59, 83, 15, 102, 96, -35, -35, 103, -86, 53, 98, 101, -110, 76, 98, 76, 12, 8, -106, -77, -61, 92, 54, 44, -19, 7, -62, 37, -76, -113, 11, 11, -9, 3, -57, 89, -5, 87, -72, 29, 17, 108, -91, -81, -23, -113, 99, -90, 9, -101, 83, 31, 42, -5, -100, 68, -92, -39, 43, 47, -75, 13, -54, -13, 41, 16, -82, 76, 79, -93, 84, 40, -23, -63, -86, -83, -84, 17, -63, -71, 6, 86, -40, 15, -60, 66, -15, 105, 73, -83, -13, 77, 69, 107, 110, 7, 7, -28, -92, -20, 116, 49, -51, -1, 40, -51, 30, 58, -70, 109, 58, -41, -3, 39, 39, 51, -73, 22, 110, -8, -44, 10, -97, 17, 121, 104, -29, -58, 102, 111, 41, -87, 11, -30, -101, -27, 46, -27, -18, 95, -89, 112, -73, 54, -38, 110, -83, 55, 115, -49, -74, -86, -80, 8, -99, -97, 55, 106, -2, 82, -22, -73, 121, -98, -44, -104, -55, -52, -85, -15, -26, -87, -33, -1, 122, 14, -51, 88, -26, -43, 109, -75, -83, -68, -13, 11, -39, 96, 101, -101, 78, -56, 67, 17, -96, 74, 116, -4, -4, 79, 72, 6, -76, 51, 57, -52, 104, 5, 38, -2, -38, -22, -84, 107, 76, -45, 51, 62, -103, -102, -108, -40, -45, -83, -28, -26, 36, 11, -39, -97, -64, 29, -37, 39, -108, -35, 25, 5, 104, 34, -36, -44, 35, -99, -77, 75, 5, 90, 78, -112, 16, -106, -66, 0, 25, -75, -37, -40, -34, -14, -21, 72, -35, 84, 94, -58, 33, 103, 73, -43, -83, 100, -18, -104, -19, 79, 44, 17, -103, 65, 5, -20, -11, 70, 48, 80, -114, -9, 76, -44, 13, 32, -37, 76, -23, 62, -93, -85, -88, -30, 
  -1, 80, 23, 64, -49, 34, 96, 68, 32, 41, 0, 59, -89, 27, 75, -33, -66, 111, -19, 3, 105, 77, 87, 63, 117, 2, -14, 105, 98, 26, 12, 77, 102, -83, 8, 34, -67, 117, 19, 59, 5, 0, 101, -33, -2, -42, 64, 33, -30, -87, 72, 62, -82, 106, 69, 86, -70, 66, 17, -10, -62, -84, -93, -107, 1, 93, -33, 1, 24, 56, 95, 7, -21, 98, -92, -4, 77, -65, -76, 67, -33, -28, -61, 11, -68, 34, -15, 87, 110, 30, 3, 18, -37, 2, 89, 51, -78, -40, 117, -13, -43, -68, 8, 107, 45, 107, 51, 112, -9, -69, -27, 40, 112, 12, 83, -93, -108, -108, 52, 110, 75, 37, 68, 77, 4, 58, -25, -86, 31, 31, -52, -13, -91, -43, 39, -8, -27, 48, 68, -62, 78, 66, 116, 25, -72, 89, -69, -20, -30, 91, 28, -26, -26, -85, 49, 15, 81, 29, 7, 116, -93, 21, -8, -65, 65, -30, 73, 11, -45, 66, -81, 49, 93, 113, 26, 63, -64, 89, -94, 80, -18, 107, 58, 42, 27, -42, 67, 53, 27, -22, 55, 35, -17, -89, 94, -77, -105, -97, -61, 8, 101, -7, -13, -20, 5, -106, -79, 96, -17, 1, -114, 71, 42, -64, 66, 71, 109, 15, -4, 53, -106, -81, -93, -64, -76, 94, 1, -40, -106, 92, 17, 38, -86, -20, 15, 108, -115, 42, 71, -115, -75, 0, 43, -39, 57, 60, -56, 77, -69, -12, -59, 83, 92, -103, -18, 44, 32, 28, 3, 38, -80, 82, 53, -47, -68, 83, 56, -16, -103, -4, 15, 39, 76, -3, -64, -26, 70, 71, -61, 103, -59, -99, -11, -80, -45, -73, 16, -34, -33, 6, 85, -40, -96, 39, -41, -30, 31, -68, -90, 4, 52, 104, 60, 77, 69, -88, 86, -59, -65, 43, 51, 71, 45, -103, -86, 77, -98, 95, -90, 100, 73, -40, 59, 79, -100, -53, 45, -110, -10, 76, -91, -94, 63, 4, -3, 39, -96, 41, 78, 115, -23, 54, 116, -73, 27, -37, 71, -36, -6, -26, 59, -29, -68, 3, 77, 33, -46, -35, -10, -110, -94, -15, -91, -74, 107, -60, -45, -63, 101, -65, -34, -12, 5, 76, -70, -110, -87, 54, 89, -29, 113, -96, -72, -105, 62, -27, 1, 106, -7, -33, -67, -49, -91, 10, 1, 71, -92, 46, 22, -47, 30, 37, -88, 32, 26, -78, 93, -30, 37, -98, 56, 20, -3, 80, 105, -90, -1, -70, -9, 20, 114, -15, 30, 68, 51, 104, -25, 8, 41, -112, -8, -43, 87, -111, 45, 34, 1, 91, 36, -62, 52, -78, -102, -52, 61, 26, 59, 7, 75, -27, 8, -105, 70, 16, -20, -105, -75, -92, -8, -53, -97, 85, -39, -34, -16, 100, -43, 1, 118, -62, -66, -10, 67, -8, -2, -61, 113, -40, -80, -107, 43, 24, 66, -67, -4, -43, -96, 30, 5, 113, 52, 59, -28, 37, -42, 1, 110, 51, -56, -25, 100, -51, 56, -101, -1, 12, -68, 98, -103, -69, 7, -39, 0, -66, 51, -28, -14, -95, -16, 24, -49, 4, 57, 86, -9, -18, -3, 37, -64, 18, 27, -29, -35, -16, -45, 43, -91, 45, 110, -47, -102, -29, -8, 69, -88, 60, 28, 0, 49, 26, -33, -72, -22, 68, -47, 84, -103, -69, -90, -43, 26, 76, -73, -19, -79, 5, 30, 45, -118, -26, 11, -64, 24, -50, 97, 104, -33, 57, -72, 4, 49, -19, 105, 30, -96, 80, 26, 61, 22, -95, 20, -41, 47, 2, -33, 82, 65, -39, 57, 93, -70, -21, 51, -64, 17, 0, -11, 71, -49, -61, 82, -77, -72, 71, -43, 90, 8, 92, 52, -83, -97, 91, -45, -47, 13, 12, -110, 34, 21, 58, -53, -76, 23, 21, -110, -68, -73, 19, 10, -6, 63, 66, -53, 69, 98, 38, 29, -65, -43, 30, -97, 103, -68, -65, -73, 41, 49, 34, 10, 75, -35, 69, 16, 44, -53, -99, -84, -62, 11, 114, -85, 47, 45, 81, 50, 102, 46, -78, 92, -40, 3, 82, -115, -110, 68, -57, 7, 86, 99, 22, -56, 78, 75, -59, -93, 64, 27, 91, 114, -38, 64, 90, -39, 20, -47, -15, -105, 61, 26, 24, -5, 14, 73, -49, -100, 50, 24, 7, 5, -96, 40, 60, 16, 18, -60, 47, 90, -97, -77, 57, 29, -108, -44, -67, -36, -34, 112, 3, 32, -61, 17, -30, 66, 39, -41, 94, -53, -105, 48, 16, -2, 92, -75, -61, 17, 19, 8, 39, -108, -78, -41, -45, 14, -48, 49, -110, -54, 34, 88, 102, -110, -98, -50, -60, -66, -27, -27, -9, -32, 105, -2, -49, -100, -82, -80, -105, -69, -58, 39, 118, -35, -78, 71, 7, -86, 31, -102, -46, -33, 24, 96, 30, -104, -72, -14, -16, 81, -57, -38, 28, -83, -29, -61, 93, -37, -61, -99, -86, 32, -38, -3, -25, -13, 27, 71, 51, 72, -79, -58, -16, -49, 50, 90, -41, 109, -5, -51, -78, 4, -1, -29, 39, -97, 102, 15, -46, -41, 32, 25, -92, -57, -41, -92, 45, -85, -72, -34, -105, 31, 23, -68, -79, 92, 66, -93, -76, 26, 43, -49, -101, -33, -103, 42, -56, 48, 3, -6, 1, 115, -52, -15, 14, 8, -43, 78, 73, 110, 78, -60, -30, -8, 42, -80, -31, -4, -30, 53, -90, 61, -95, -100, 52, 66, 104, 26, -56, 111, -14, 93, -32, -90, -35, -7, -38, 27, 66, 49, 15, 10, 9, -67, 84, -55, -106, -50, 86, -19, 111, 56, 88, -46, 99, 91, -95, 85, -22, 100, -51, 34, 2, 57, 5, 71, 65, 108, -69, 60, 72, -71, 57, -10, -94, -63, -4, 35, 28, -46, 47, 61, -84, 11, -102, 28, -49, 87, -108, 90, -74, -81, -93, -17, -111, -19, -66, -56, -14, 71, 46, -50, 19, -96, 92, 101, -111, -92, 38, 50, 99, 108, -20, 52, -110, 32, -55, -92, -109, -113, 23, -95, -79, 
  -86, -49, 2, -33, -76, -67, -62, -29, 16, -26, -101, -105, 30, 0, 1, -42, 10, 47, 39, -27, -79, 103, 42, -35, 36, 84, 57, 7, -32, 92, 97, -56, -31, -68, -16, -74, -50, 55, 68, 25, -39, -33, -79, 18, -63, -20, 5, 35, -76, 47, 60, 112, 30, -37, -4, 55, 31, 52, -63, -5, -104, -56, 67, 112, 98, 62, 83, 30, 8, 86, -50, -1, -28, 9, 12, -9, 1, 27, 29, -95, 80, 67, 43, 58, 22, -76, -81, 88, 40, 21, 32, -49, -25, 74, 107, -105, 76, -52, -42, 30, -103, -28, -83, -7, -59, 105, 108, 48, 77, 77, 97, -8, 92, -52, 14, -52, -27, 38, -84, -91, -47, -75, 52, 51, -118, 49, -66, -81, 96, -84, -12, 33, 33, -79, -4, 110, 109, 39, 63, 56, 69, -108, 94, 72, 88, 20, 61, 75, -18, -49, 17, 44, 39, 0, -48, 0, 52, 34, 55, -105, 106, 32, 87, -67, -57, -87, 91, -13, -61, -22, 44, 73, 73, -44, 61, 56, -62, 76, -53, -113, -87, -104, -8, -72, -30, 20, 53, -68, -110, 56, 24, 21, 105, 9, -84, 55, -99, 85, 19, -33, -109, -39, 109, -32, 32, -87, -90, -45, 4, -3, -41, 109, 13, 8, 6, 49, 117, 12, 117, -80, -25, 62, 88, -23, -92, 37, 23, 20, 1, 103, 18, -44, -110, -73, -12, -56, 114, 55, -73, 21, -98, 94, 7, 109, 99, 7, -15, -97, 13, -16, -13, -28, 83, -40, 62, 59, 8, 71, 19, -53, 118, 111, 10, 46, 4, 54, 64, 91, -64, -85, 111, -51, 6, -14, 80, -15, 51, -84, -95, -26, -57, -111, -18, 41, -98, -3, -3, -89, -1, -11, 2, 64, 79, -108, -28, 103, -106, -109, 0, -109, 9, -2, -66, -52, 65, -13, 73, -5, 42, -6, -102, 109, -65, 46, -91, -48, 15, -103, 116, 120, -90, -25, -92, 109, -74, 65, -87, -82, -33, 35, 9, 32, 10, -91, 36, -65, -21, 121, 105, 123, -99, -56, -35, 96, -9, -97, -47, 11, 74, 70, 94, 74, 30, -92, 56, 66, -51, 48, 99, -86, -49, 105, 98, -107, -44, -42, 23, 118, 64, 87, -79, -50, 111, 90, 90, -6, 18, 119, -86, -21, 70, 64, 60, -28, -81, 104, 64, -55, 62, 5, -69, -33, 3, 65, -73, -64, 5, 68, 98, 23, 80, -13, -76, 1, 1, -101, -25, 61, 36, -50, 10, -54, -42, -5, -95, 95, -51, -49, 12, -99, -52, 2, 0, -114, 56, 7, 83, 63, -27, -34, -9, -54, 82, -98, -52, -26, -59, 106, 99, 48, 84, -21, -86, 63, 34, 65, 94, -98, 93, 70, -117, -29, 49, 96, -34, 1, 5, 44, 102, -66, -60, 104, 83, -30, -17, 25, -89, 52, -53, 75, 45, 90, -40, -88, -107, -80, -55, 43, -74, -81, 65, 37, -111, -103, 48, -96, 59, -69, -114, 88, -23, 1, 70, 110, 59, -74, -99, -13, -57, 11, -28, -99, 21, 110, -65, 90, 3, -35, -81, 108, 23, -115, 85, -79, -83, 47, -80, -48, 31, 24, -7, -36, -103, 65, -26, -57, 104, -11, 107, 38, 96, -88, 81, 20, -91, 37, -37, 104, -80, 67, -84, 59, -73, 71, 8, -89, 77, 56, -8, 19, 83, 91, -32, 111, -62, 45, 101, 9, 24, -92, 17, 12, 12, -73, 50, -12, -104, 27, 75, 50, -62, 97, -31, -4, 99, 53, 71, -93, 56, 14, 10, -69, 92, -23, 83, -27, 108, 46, -69, 34, -17, 25, -26, 101, -23, -39, 22, -91, -91, -74, -5, 71, -13, 33, -82, -51, 58, 39, 83, -59, -86, -12, 28, 79, 12, -69, -23, -39, -23, 58, -92, 99, -48, -110, 45, 73, 55, -41, 17, 106, 77, -109, 22, 59, -37, 117, -92, 80, 1, 17, -109, 25, 111, 41, 100, 12, 67, 56, -40, 87, -14, 57, 101, 33, -81, -52, 18, -86, 2, -94, 62, -66, 82, 93, 29, 72, 60, -95, -27, 60, 62, -38, -44, -70, 100, 59, -4, 78, -29, -51, -74, -59, -65, 37, 85, -106, -28, 88, 121, 7, -17, -107, 116, 64, 107, -87, -38, 30, -54, -56, 70, 50, -80, -107, 104, 61, 121, 56, -22, 58, -50, 122, -4, -80, -86, 87, 118, 61, -107, 105, 76, -25, 40, 5, 15, 79, -61, -71, 56, 94, -102, -64, 70, 99, -70, 81, 92, -76, -43, -59, 56, 21, 76, -12, 56, 26, 4, -44, -105, 94, -93, 105, -14, 26, 12, 7, -112, -53, -22, -22, -96, -74, -73, -40, 39, -55, 88, 72, -63, 42, 81, 46, 27, 30, 110, 50, -60, 80, 2, 68, 41, -16, 51, -6, 109, 97, 104, 78, -110, 28, 86, -68, 23, 32, 41, 4, 0, 54, -56, 66, 41, -69, 58, 10, -63, -76, -104, -28, -90, 104, -42, 111, -86, -60, -59, 92, 103, -31, 15, -30, 111, 3, -31, -24, -16, 30, -106, 82, 7, 59, 102, 22, -91, 38, -49, 57, -38, 23, 75, -38, -36, -102, -67, 80, -32, -104, -92, -6, -80, -27, -48, 4, -16, 71, -47, 12, 13, 93, 70, 25, 95, 22, -90, -19, 75, -79, -110, 105, 69, 91, 64, 15, 98, 50, -19, -111, 60, 59, 85, -75, -93, 29, -93, 19, -14, -12, 63, -58, 46, 17, 98, 40, 18, -91, -102, 31, -33, -10, 97, -80, -16, -95, -111, -5, -79, 76, -8, -114, -94, -88, -75, -38, 88, -12, -28, -87, -57, 28, 89, 85, -87, -18, -52, 72, -1, 42, 52, -118, 82, 105, 78, -50, -108, -6, 9, 62, -79, 102, 43, 60, 53, 111, 92, 2, -51, 25, -78, -53, -94, 62, -27, 30, -52, 63, 46, 35, 111, 78, 78, -114, 24, 60, 86, -100, -6, -35, 29, -100, 6, 56, 69, 20, -99, -115, 5, 70, 15, 79, 16, 97, 66, -65, -83, -71, 38, -2, 55, 70, -92, 107, -61, -18, 117, 38, -87, 8, -19, 30, -23, 42, 
  90, 35, -3, -4, -54, 11, 74, 94, 3, 75, -79, -41, 56, -31, 82, -10, 59, -44, 69, 53, 6, -105, 81, 10, 3, -91, -62, -11, -8, -106, -10, -1, 76, -10, -22, -96, -53, 72, 111, 98, -75, -12, 66, -96, -4, -31, 13, 85, 105, -25, -89, 62, -56, -85, -73, -112, 52, -5, 98, -111, 100, 84, -109, 105, -103, 104, -105, 57, 69, 72, 83, 90, -49, 60, -28, 46, -32, 31, -48, -73, -93, 105, 98, -110, -21, 65, -57, 113, 85, 86, 96, -25, 23, -82, 97, -57, -29, -9, 102, 39, -76, 26, 55, -34, -21, -11, 40, -69, 45, -19, 79, -39, 9, 3, -35, 85, 14, -1, -71, 44, 113, -19, -104, 35, 109, 106, -25, -98, -17, 98, -78, -45, 37, -30, 76, -8, -52, 71, 112, 35, 61, 36, 109, -58, -86, -76, 84, 33, 13, 91, 8, -31, -34, -50, -110, 117, -95, 80, -44, 62, 108, 33, 65, 57, 21, -93, 18, -3, 86, 89, -3, 4, 33, 96, -74, 64, 102, 95, -59, -29, -24, 9, 67, 74, -35, 21, 0, 14, -109, -97, -67, -48, 107, -66, 55, -78, 116, -104, -20, -37, -1, 56, -50, -31, 119, 112, -86, -18, -52, -21, -48, 6, 38, 21, 55, -5, 87, -46, -35, 17, 104, -9, -50, -72, 33, 113, 79, 68, 117, 78, -100, -65, -87, -53, -28, 26, -16, -1, -72, 7, -59, 23, 102, 63, 24, -75, -32, 80, 51, 52, -63, 110, -20, -16, 53, 32, -64, 17, -57, 32, 87, -3, 68, 106, -46, 112, -52, 22, 118, 101, -83, -91, 117, -54, -7, 58, -20, -71, 70, -24, 87, 47, -110, 34, -13, -61, 101, 43, 67, 33, -51, 21, -34, -58, -7, 83, 20, -73, -85, -67, 27, 45, 0, 72, -40, -7, -91, 46, 94, -44, 6, -76, 69, 55, -111, 106, -72, -48, 58, 7, 42, -4, 111, -99, 50, 7, -81, -95, -26, 29, -8, 6, 51, -48, -38, 32, 37, 21, -112, 103, -76, 93, -116, 58, -44, 73, -57, -52, -117, 36, 20, 101, -63, -11, -105, -5, -56, 101, -7, -11, -111, 50, -79, 57, -24, 16, 84, -51, -103, 64, -94, 96, -50, -14, 31, 111, -36, -93, 50, 95, 57, 110, 28, 105, -15, 34, -87, -99, 11, 76, 86, -35, -96, 37, -46, -80, 36, -89, -56, 103, -101, -60, -102, -35, -41, 47, 6, 40, 26, -65, -3, -49, -107, -57, -11, -57, 104, -93, -62, 94, -100, -64, 15, -96, 19, 95, -76, -7, 20, -68, 32, 16, 41, -22, 47, 87, 108, -97, -48, -110, 106, -31, -65, 62, -25, -111, 110, -93, 42, 104, -112, 64, -27, 87, -55, -101, 41, 108, -78, -16, 3, 25, -4, -87, -94, -42, -75, 59, 22, 101, 1, -64, 114, -8, 48, -42, -92, 39, 6, 26, 6, 61, -53, 105, 9, -93, 50, -111, -37, -6, 106, -87, -82, -37, -19, 5, 101, 39, 103, 108, 14, -55, 96, 57, -71, -108, 15, 9, -53, 38, 69, -41, 93, -107, 13, 113, -59, 118, -46, 56, -109, 66, -46, 86, -18, -57, 45, 118, -17, -73, 116, 5, 120, 40, -70, -72, -81, 11, 24, 95, 34, 67, 114, -107, 59, 73, 76, -28, 62, 34, 12, 11, -53, -18, 12, -104, 97, -49, 7, 59, 111, -104, 87, -34, 41, 46, 64, -78, -95, -78, 82, 17, 52, -7, -84, -8, 17, -22, -39, -54, -2, -77, -89, 74, 51, -105, 22, -86, -60, -62, 66, 116, 33, -6, 81, 100, 112, -32, 68, 105, -2, 71, -77, 121, 18, -80, 0, 44, -8, -10, -67, -85, 104, -8, 90, -6, -109, -91, -61, 10, 73, -110, -82, -80, -77, 25, 52, 48, 40, 111, 60, -102, 68, -109, 16, -66, 88, -85, -4, -24, 103, -17, -99, 62, 42, 1, 43, 97, 107, -66, -24, -80, -62, -81, 48, -43, 25, 91, 13, -48, -76, -56, 23, 34, -41, 106, 100, -13, -90, -43, 111, 74, 28, -1, -95, 4, 4, 40, 27, 99, 80, 53, -112, -16, 3, -23, -58, -21, -28, -73, 41, -70, 93, 54, -58, -32, 99, 84, 25, 18, 74, 5, -64, 55, 68, -3, 97, 81, 35, -108, 55, -17, -3, 98, 106, -8, -81, -105, -21, 96, -38, 91, 13, -48, -92, -42, 1, -2, -63, -7, -3, -9, 72, 33, -106, 25, 0, 86, -21, -37, 107, 24, -59, 84, 5, -52, 39, -9, 51, 55, 21, 93, 98, 96, 31, 108, 63, 45, -50, 32, 72, 19, 4, 39, 84, 0, 21, 112, -54, 95, 22, -75, 82, 55, 31, -13, 70, -95, -70, 8, -28, 107, 13, 62, -32, -95, 5, 60, 3, 74, -104, 31, -71, -26, -4, -114, 102, 40, -12, 21, 72, -104, 105, 30, -43, 88, 77, 110, -112, 7, -93, -59, -67, 80, 11, 69, -38, -99, 86, 112, 12, -83, 86, 39, 55, 6, 34, -29, -74, -13, 37, 56, -58, 34, -10, -75, 70, -68, -113, 20, -100, -95, -38, 62, 55, -37, -61, -37, 4, -4, -100, 60, -22, 45, -60, 85, 16, -18, -51, 113, 13, 115, -112, 68, 62, -42, 54, 24, -31, 116, -102, -107, -15, -89, -97, -86, 79, 118, 103, -99, 92, 50, 111, -90, 56, -59, -25, -104, 82, 100, 54, 6, 11, 18, 25, -55, 3, -29, -75, 22, -24, 109, -97, -64, -8, -40, -82, 104, -26, -101, 15, 94, -59, 4, -64, 63, -84, -80, -21, 9, 11, 20, -64, -17, 3, -100, -29, 19, 24, -24, -28, -78, 55, 77, -6, 29, -37, -79, -85, -74, 21, 3, -43, 109, 89, 15, -85, 91, 99, 13, 84, -101, -92, -41, -84, -93, -4, -88, 47, -68, 22, -89, 119, -3, -49, -102, -5, -83, -1, -70, 2, 63, -63, -46, 109, 91, -91, -6, 8, -42, 105, -3, 86, -87, -13, -24, -26, -72, 81, 31, 75, -58, 24, 78, 33, -79, 56, 108, 63, -71, 
  41, 18, -84, 36, -45, 57, -15, -84, 98, -2, -37, 31, -11, -74, 7, -17, 91, 26, 49, 85, -26, 41, -65, 27, 64, 12, -105, 39, -74, -26, -109, 81, -52, -84, 49, 22, -64, -19, -90, -77, -66, 72, -32, 113, -61, 55, 65, 57, 75, 60, 62, -92, -89, 114, 56, -107, -108, -83, 25, 52, 104, 33, -48, 57, -21, -88, -93, -20, -18, 104, 101, 117, -19, 21, -70, -101, -37, -16, 66, 33, -71, -80, -2, -98, 5, 76, -13, -49, 100, 7, 51, 19, 79, -25, -100, -32, -58, -101, -7, -49, -95, -75, 45, -20, -61, -99, -2, -90, -33, 74, -106, 17, -39, -111, 24, -7, -95, 112, -17, -9, 21, -20, -53, 59, 72, -14, 31, -54, 104, 15, 68, 62, -48, 6, -9, 80, 55, -20, 106, 12, 62, -59, 1, 7, 68, 72, 32, 36, 60, -84, 14, 21, -55, -43, 49, -27, -106, 8, 106, -97, 75, 13, -70, 117, 111, 54, -38, -100, -40, -48, 100, 54, 105, -26, 119, -65, -66, -15, -48, 69, -81, -7, -103, -1, -49, -50, -17, -72, 17, 46, -35, 52, 7, 26, 65, -105, 14, 20, 28, 110, -15, -16, -103, 10, 107, -1, -95, 25, 22, -91, -64, 63, 93, -53, -80, -86, 51, -41, 36, -37, 36, 56, 59, -1, 50, 91, -28, 49, -91, -83, 100, -9, 9, -38, 84, -108, -91, -15, 24, -19, 54, 30, -10, -44, 103, -104, -97, -1, 71, -66, 40, -59, -34, 11, 104, 56, -111, 0, 21, -99, 98, 113, 28, 47, 57, 40, 42, -28, -47, -112, -93, -30, 22, -98, 39, 8, 83, 102, 81, 21, 85, 75, 69, 81, 28, 39, -114, 70, 22, -75, -108, 22, -18, -83, 46, 97, -86, -50, 25, -17, 23, -11, -60, -105, 42, -14, -20, 77, -77, 50, 98, -52, -51, 101, -81, -61, -2, 57, -37, 89, 39, -26, 61, -93, -26, 15, 32, -11, 92, 77, -77, 110, 58, 98, 35, 77, 61, 10, 34, -62, 94, 22, 111, 37, 2, 5, -85, -100, 103, -58, -83, -29, -38, 91, -26, 71, -107, 0, 62, -17, -68, 111, -58, -100, 80, -38, -90, 33, 100, -73, -65, 50, 85, -61, -31, 84, 35, 32, -12, 83, -86, -53, 68, -41, -110, -94, -87, 107, -105, 71, -44, 106, 63, 77, -12, 111, -89, 114, -81, -95, 9, -103, -21, 26, 98, 98, 20, 70, -38, -15, 114, 58, -14, 26, 79, 36, 5, 83, 48, -82, -19, 6, -48, -9, -3, -69, -93, -56, -54, 83, -46, 82, 74, -98, 106, -103, -82, -100, 103, -84, 15, 40, -7, 95, 70, -35, 88, -79, 8, -59, -28, 12, -47, 65, -50, -46, -73, -39, -91, 2, 20, -79, -25, -74, 25, -24, 81, -23, -87, 112, 113, 11, 62, -2, -26, -91, -58, 11, 59, -56, 69, 103, -31, -3, 101, -30, -36, -26, -75, 68, -20, -41, -11, -27, -35, 87, -66, -40, 52, 73, 13, 75, -103, -29, -18, -13, 27, 26, -52, 16, -106, -51, -54, -62, -54, -45, 106, 56, 11, 49, 47, -14, 16, -54, 7, 109, -16, 117, -47, 72, 27, 73, 78, -22, -70, 121, -10, 86, -77, 18, 19, -37, -6, -23, -5, -45, -89, -103, 103, 59, -49, -23, 61, 109, -16, -25, 84, -25, 104, 89, -90, 30, -1, -15, 72, -77, 47, -38, 68, 55, -41, -20, 60, -50, 21, -84, 41, 94, 39, -45, 83, -37, -6, -99, 113, 85, 16, 53, -24, -13, 28, 5, 57, 56, -7, -92, 89, 12, 102, -2, -49, 53, 109, 59, -24, 12, -94, -81, 47, -91, -7, 68, 1, -81, -105, -7, -79, 21, -90, -61, -94, -91, -111, -3, 20, -19, -33, 83, 51, 0, -8, 105, -90, -8, 109, 3, -19, -108, -106, -113, 10, 35, 63, 109, 34, 101, -109, 58, 88, 24, -11, -100, 75, 33, -3, -56, -59, -91, -112, -114, -116, 95, -73, -54, 80, -86, 109, -40, 78, -115, -29, -35, -98, 2, -47, -76, -55, -82, -20, -24, -46, 60, 43, -82, 62, 62, 63, -68, -113, 86, 98, 64, 86, 102, 69, -32, 75, -42, 58, 71, -36, 70, 44, 56, -65, -38, -67, -54, -106, -35, -45, -75, -15, 5, 9, -21, 60, 105, 92, -18, 66, -53, 97, -109, -95, 64, -94, -106, -90, 19, -77, -75, 32, 87, 12, 61, 70, -112, 95, 66, 103, 45, 1, -5, 59, -6, -3, 34, 77, 52, -101, -68, -14, 42, 95, -46, 56, -17, 57, 81, -39, 89, 91, -85, -114, 66, -62, -9, -106, 12, -90, -98, 101, 48, 28, -51, 100, -31, -72, -70, 78, 15, 98, 32, -105, 51, 24, 28, -68, 92, -28, 56, -53, -106, 82, 44, 69, -21, -47, 111, 3, 31, 107, -58, 0, -4, 80, -42, -84, 104, 5, 59, -59, 65, 94, -46, -105, 104, -17, -51, 43, -27, 47, 86, -13, -48, 109, 18, -103, 44, -95, -91, 86, -60, -41, -11, -72, 102, -74, -77, 53, 87, -65, -101, 54, 3, 95, 75, -50, 28, -44, -56, -57, -63, 48, -97, 94, -87, 5, 97, -3, 13, 110, 112, 101, 28, 47, -59, -17, 72, 14, 97, -45, -18, 89, -104, -59, 39, -40, -89, -6, -81, -48, 42, 47, 42, -6, 50, -14, 14, -41, -72, -62, -29, 67, 31, -92, -6, 109, -59, -92, 45, 113, -94, 5, -76, -16, 54, -1, 49, 107, 85, 15, -8, -107, -73, 52, 4, -2, 77, -104, 35, -89, -28, 54, 67, 0, -97, -97, -40, 97, -69, 82, 52, 48, 110, -92, 74, 1, 21, -19, 35, 14, 5, 107, -62, -3, 105, 96, 3, 112, -86, -106, -33, -112, 2, 83, -74, -1, 54, 50, 55, -111, -14, -53, -30, -93, -8, 101, -59, -32, 48, -73, 34, 102, 112, -41, 113, -23, 24, 51, 17, 46, 16, -10, -42, -75, 73, -93, -12, 53, 19, 8, -14, 89, -106, 69, -85, -54, 46, 
  9, -101, 90, -59, -9, -71, 87, -68, 15, 61, 29, -109, -59, 93, -93, -6, 71, -22, 68, -44, -4, -53, 54, -60, 71, 25, -116, 85, 31, -86, 64, 60, 75, -9, 105, 71, 53, 5, 21, -8, 52, 36, 71, -14, 110, 32, -15, -59, -92, 110, 34, -105, -87, 23, -81, 112, -88, 59, -43, 55, 91, -83, 91, 35, 54, 108, 56, -78, 80, -114, 44, -18, -19, -57, 75, -4, 45, -112, -101, -19, 22, 113, -42, -64, 37, -12, -112, -12, -63, 31, -63, 87, 49, 95, 26, -25, 86, -90, -66, 15, 64, 74, 10, -74, 109, 112, -98, 43, 53, 53, -108, 48, -44, -28, -102, -17, -71, -57, -57, -80, -104, -101, -19, 80, 8, -54, 111, 59, 28, -46, 76, 12, -111, 31, 44, 73, 25, -37, 40, 9, 103, 112, -51, 32, -64, 66, 72, 83, 79, 4, -41, 66, 100, 69, -48, 42, 105, -38, 39, 104, 36, 52, 63, -106, 61, 107, 12, -105, 7, -7, 45, 107, -24, -82, 79, 106, -101, -115, -54, -116, -36, 10, 44, -43, 72, 83, -38, 67, -60, 90, -45, 3, -101, -13, -63, -13, -93, -29, -52, -28, -46, 25, 50, -67, -76, 112, -54, -24, 102, -82, 82, -103, 78, -15, 28, -16, 15, 28, 115, -28, 10, 83, 30, -3, -85, 5, 77, -76, 66, -92, -10, 44, 37, 30, -104, -55, 28, 30, 111, 54, -70, -7, -62, -8, -13, -62, 25, -23, -34, -90, -80, 63, -42, 17, 51, -107, -58, -111, -74, -105, -8, 86, -11, 106, 46, -73, -43, 76, -32, -113, 81, 111, 113, -71, 72, -75, -63, -45, 50, 107, 110, 76, 89, -9, 62, 53, 71, 85, 67, -4, -10, -33, -109, 10, -29, -70, -44, -92, -48, -115, 78, -46, -68, 2, -28, 81, 76, 102, 60, -29, 6, -99, 91, -55, -32, 35, 10, -79, 25, 97, -99, -114, -62, -9, 28, 93, 49, 10, 68, 91, -115, -32, 111, -89, 68, 18, -84, 0, -51, 107, -109, -25, 71, -82, -65, 63, -36, 62, 113, -75, 27, -48, -106, 60, 29, -94, -73, -32, -24, 26, -72, -1, -91, -25, -71, 97, 17, -26, -36, -36, 54, 61, -66, -92, -28, 113, 44, 74, 51, 13, 99, -7, 79, 77, 16, 70, -80, -102, -59, 11, 33, -28, -25, -26, -46, 31, 43, 96, -6, 20, -69, 33, -11, -22, -6, -17, -7, 8, 35, 2, -65, -38, 12, 50, 82, -76, 77, -48, 31, 43, -14, -37, -48, 29, -97, -103, 29, 88, -75, 21, -81, 56, 100, -95, 104, 33, 20, 37, -81, -28, 55, 8, -6, 0, -88, -77, -112, -10, -71, 78, -62, -56, 82, 27, -86, -51, -102, -37, -99, 23, 29, -48, 79, -52, 63, 64, -5, 0, 20, -52, -20, -25, -80, -54, -74, 34, 43, -94, 29, 94, -36, -49, -56, -48, 67, 19, 61, 50, -87, -85, -90, 26, 52, 111, 21, 57, -104, -80, -61, 4, -28, 73, -87, 47, 38, -77, -78, 100, 96, 97, 108, 75, -102, 4, -55, -74, -41, 94, -48, 99, 97, 20, -10, 8, -104, -42, -99, -90, -113, 82, -107, -5, -84, 43, 108, 88, 45, -59, 73, 65, 91, -57, 18, -59, -36, -80, -81, -99, -11, 20, 40, -91, -2, -5, 8, -14, 74, 60, 19, -32, 110, 94, -86, 23, 11, -106, -89, -108, 80, -62, -41, -41, 13, 100, -68, -63, -18, -44, 109, -82, 0, 7, -44, -57, -50, -17, -6, -61, 89, -75, 93, 107, -52, 78, -76, -37, 8, 83, 74, 33, 30, -64, 8, 38, 34, 56, -6, -70, 54, -78, -18, -103, -8, 15, 103, -68, -97, -109, 9, -28, -34, -27, -34, 99, 3, 58, 65, 18, -108, 36, -40, 15, -63, 89, -52, -33, -111, -65, 6, -66, -91, -9, 56, 27, -37, 15, 90, 32, 78, 33, 67, 18, -86, 100, 92, 12, 90, 26, 61, -61, 37, -76, -65, -55, 27, -71, 81, -8, 18, 65, -35, -38, 27, 6, 52, 15, 11, 75, 13, 45, 16, 52, 53, -1, -52, -52, -93, 54, 24, -88, -51, -17, -67, 82, 32, 39, -66, -59, 72, -17, -11, 62, 58, 101, 1, -81, 13, -19, -72, -20, 13, 51, -21, -97, -114, -33, 3, 35, 45, -34, -2, -103, 94, 39, 38, 94, 79, 46, -114, 101, 98, 14, 39, 25, -53, -29, -25, 4, -61, -39, -111, -5, 16, 68, 45, -15, -59, -4, 19, 13, -99, -111, 33, 16, -52, 62, 59, -14, 104, 114, 67, 106, -22, 47, 17, -39, -88, 58, 83, 112, -112, -88, -27, -38, 101, -104, -3, 26, -20, 0, -6, -117, -49, -19, -32, 57, 62, -41, -5, 7, -50, 30, -76, 14, -92, 55, 74, -42, -51, -40, -6, 73, -51, -117, 20, 39, -84, -83, 92, 85, -103, 13, 76, -43, -8, 44, 55, 20, -101, 99, -10, 100, 88, -20, -90, -118, -109, -106, -89, -49, -12, -38, 44, -46, -30, -14, 103, -116, -101, 66, 39, -16, 37, -98, 85, 9, -61, 67, 71, 1, -72, 104, -93, 17, -15, 75, 57, -76, -78, 95, 23, -33, 42, 59, 0, 91, -20, -114, 67, -81, -7, 16, -18, -3, 68, 21, 64, -25, 12, 85, -76, 60, -69, -76, -52, 10, -77, 32, 72, -116, -30, -1, 53, 99, 54, 50, -44, -15, 37, 99, -43, -56, -37, -102, 114, 38, -89, -41, -12, -80, -60, 1, -45, -108, 49, 63, 62, 95, -113, 26, -92, 17, 80, 31, -106, 53, 74, 3, 52, -39, 21, 24, -92, 96, 99, -102, 105, 58, 100, -41, -54, 99, -52, 62, 61, 18, 25, -25, -53, 73, 101, 87, -89, -13, 96, 88, -8, -90, 100, 48, -61, -10, -62, 95, 29, 61, 49, 57, 64, -52, -28, 65, -17, 11, 72, 7, -92, -113, -31, -15, -90, 74, 44, -102, 2, 106, -104, -33, -56, 81, -71, -18, 113, -113, -109, -92, -45, 87, -52, -111, 
  -72, 95, -31, -99, 91, -66, -23, 18, -60, -98, 77, 69, -75, -103, 69, 76, -99, 55, 5, 19, -110, 98, 47, -46, -99, 52, -104, 58, -44, -8, -110, 25, -25, 51, 58, 27, 56, -92, 8, 58, -65, -98, -12, 31, -57, 24, 62, -108, 33, -73, 99, 47, -76, -73, 25, -97, 44, -23, -13, -82, -31, -44, -19, 73, -52, -88, 106, -101, -15, -21, -31, 0, -83, -51, 69, 117, -84, -97, -19, 92, 53, -36, 4, -16, 37, 4, -63, -1, -78, 32, -59, -80, 94, -10, -61, -111, 8, -103, 27, -22, 102, 71, -90, -50, -6, 45, -104, 110, -65, 114, 85, 87, 26, 96, 36, -111, 108, 95, 17, 112, -92, 67, 40, 90, -109, 22, 93, -47, -54, -58, 88, 88, -58, -13, -16, -74, 67, 74, 64, -69, -100, 110, -40, -81, -90, 94, 95, -20, -59, -67, 49, -101, -26, 84, 42, -101, -28, 29, -4, -107, 5, 30, 73, 87, -102, -19, -95, -12, -7, 4, -99, 64, 50, 46, 57, 106, 35, -94, -52, 87, 8, 40, 116, 62, 6, 6, 104, -4, -58, -83, 93, -73, 59, 85, 95, -90, -45, 110, 73, 81, 104, -94, -62, -2, -23, 78, -17, 122, -33, -95, 54, 71, 32, -54, -102, 51, 91, 102, 21, 119, -87, -103, -72, -83, 16, 54, -60, 68, 34, 45, -67, 78, -12, -83, 111, -75, -12, -39, -99, 46, 35, 37, -43, 67, -19, 111, 85, 87, 117, 114, 59, -26, 10, -103, 6, 36, -34, 37, -74, 116, -18, -23, -90, -76, -107, 64, -66, 13, -61, 7, 5, 22, 16, 27, 53, 88, 101, 93, 37, 48, 49, 31, -44, -68, 67, 60, 98, 22, 62, 4, 9, -98, 70, 106, -72, -47, -89, 91, 17, 58, 25, -4, -97, 51, -108, -94, -54, 40, 84, -112, -83, 59, -72, 9, -3, -11, -84, -18, -57, -44, -12, 2, -61, 1, 10, 84, 58, -46, 10, 100, 47, 74, 33, -6, -71, -1, -26, -82, 107, -81, 57, -104, -1, 43, 94, 10, 98, 29, -56, -91, -112, 77, -55, 34, 91, 13, 103, -50, 58, -100, 86, 26, 20, -107, 105, 25, -40, 114, 27, -86, -16, -9, 12, -98, -81, -70, 102, -72, 5, 53, -80, -70, -40, 50, 77, 27, -59, 73, 94, 70, -21, 22, 40, 76, -41, 48, 46, 68, -57, -35, -62, 21, 73, 34, -45, -10, -81, -58, -31, -94, -91, -93, 30, -67, 72, 95, 112, -108, 12, 103, 12, 42, -33, -33, -12, 64, 31, -9, 91, -31, -57, -15, -91, 76, 90, 37, 32, 30, -53, -53, 60, 49, 28, -30, -111, -30, 86, 50, 84, -63, -27, -81, 21, 112, 88, 60, 112, 26, -87, -110, -116, 22, 3, 103, 19, 65, 53, -105, 11, -75, 19, -17, 46, 74, -8, -25, -78, -74, -86, -84, 71, 85, 1, 12, -1, 28, 7, 20, 88, -22, 84, -42, -101, 71, 49, -15, -72, -77, -22, 34, -29, 76, 23, -105, 90, 32, 93, 58, -55, -56, -106, -71, 2, 56, -14, -76, 16, -97, 68, 68, 34, 111, 38, -90, 110, -14, -101, 20, -97, 32, 37, -100, 11, -42, -72, -82, -20, 60, 55, 94, 19, 95, 42, 13, -42, -10, -30, -7, -95, 116, 54, -69, -100, -30, 114, -3, 86, 110, 22, 27, -97, 82, -77, 120, 86, -50, -50, -18, 70, 82, -68, -103, 42, 37, 13, -54, 36, 85, -56, -62, -61, 116, -19, 118, 122, -82, 95, -105, -67, -57, 101, 103, -92, 52, 122, -6, 112, 109, -78, -97, 90, -16, -84, 23, -82, 82, 64, -36, 42, 33, -55, 60, 49, -97, -106, -15, 86, -62, -42, -104, -51, 53, 34, -52, -100, -6, 105, 108, -58, -8, 48, -80, 72, 16, -59, -17, -93, -109, -41, 90, -17, 81, -107, -79, 99, -74, -99, -79, -65, -76, -5, 98, -60, 111, 99, 6, 17, 58, 91, 67, 88, 91, -12, -85, -62, -95, 68, -62, 113, -106, -24, -80, -57, 41, 32, -27, 44, 57, -104, 82, -10, 11, -17, 93, -50, -59, 19, -65, 65, 74, -36, 74, -39, 63, 39, 15, 62, 21, 64, 96, 94, 47, -41, -85, -57, 68, 97, 93, -29, 8, 42, -25, 80, -81, -83, -26, 93, 104, -112, 116, 92, -17, 69, 66, -5, -73, -63, -80, 112, 40, -61, 78, 73, 89, -70, -98, 113, 115, 41, -108, 73, 59, 39, -47, -96, 31, -46, -28, -31, 10, 52, -83, 48, 71, -49, -27, -49, 28, 77, 3, 82, -8, 25, -68, -76, 93, 93, -98, 80, 98, -42, -108, 35, -7, 106, -68, 82, 29, 19, 95, 27, 65, -93, 74, -1, 101, 58, 105, -77, 46, -87, -11, 111, -23, -57, -47, 55, 0, 83, -24, -3, 106, 54, 110, 29, -31, -107, 40, 57, -11, 7, -26, 57, 47, 80, -74, 10, -90, 61, 81, 9, -50, -82, -5, 41, 54, 2, 74, 62, -36, 87, 61, 22, -88, 19, 79, 5, 18, 107, 96, 37, -65, 103, -60, 13, 51, 109, 112, 58, 26, -67, -35, -68, -36, 38, -24, 93, 115, 76, -17, -41, -22, -41, -14, 22, 67, 66, -46, -22, 84, -55, 30, -55, 104, -39, -2, -61, -4, -78, 10, 96, 85, 32, -43, 51, 5, 101, -100, -69, -106, -20, 49, 33, -17, -48, -16, -23, -90, 46, 100, 96, -28, -93, 64, -42, 60, -71, -89, 41, 48, 16, -82, 57, -13, -34, -44, -39, -37, -27, 63, 120, 87, -96, 102, 100, -90, -61, -62, -43, 30, 101, -49, -17, -30, 82, 79, -17, -104, -15, -88, -24, 29, 23, -86, 11, 8, -53, 87, 40, -66, 36, -16, 52, -97, -41, -87, -48, -53, 4, -43, -104, -53, -54, 98, -98, 35, 108, -75, -98, 43, 112, 113, 57, 18, 57, 61, 105, -100, -55, -37, 90, -5, 91, 49, 78, 64, 54, -11, -2, -68, -103, -89, 92, -52, -96, -11, 23, 45, 17, 34, 
  -71, 53, 17, 71, -78, -10, -17, -10, 78, 69, -100, 15, 5, 71, -13, -41, 80, -66, -37, -16, -8, 78, -40, 40, 42, 22, 22, -58, -102, -75, -104, 101, 47, -12, -22, -114, -114, 5, -107, 30, -80, 98, -41, 88, -113, -39, 113, 44, -44, 60, -110, 15, 6, 37, -59, 77, -115, 86, -36, -17, 112, -38, -63, 94, 25, -112, -104, -110, 109, -114, -92, -81, 42, -105, 77, 21, 84, 44, 65, -38, -99, 77, 7, 0, -39, -44, -5, -22, 27, 97, 38, 89, 113, 65, -65, 75, -104, -98, -53, -65, -45, -85, -51, 73, 38, -16, -60, 28, 88, -72, -53, 4, -37, -9, -17, 24, -103, -103, 83, -13, 80, 57, 105, 111, 55, -77, -38, 93, -16, 77, -32, 4, -67, 11, -17, -111, -106, 75, 47, 101, -74, 115, 93, -106, -74, -83, -5, -38, 112, -46, -110, -92, -52, 112, -96, -51, 82, 46, 85, -34, -33, 38, -49, 13, -9, 10, -46, -82, 84, -88, -96, -99, 31, 76, -41, -39, 111, 44, 7, -91, -82, 103, 62, 14, 77, 48, 17, -91, -10, -94, 88, 36, -72, -26, 98, -64, -97, 34, -68, -83, -74, -14, 6, 32, 43, 119, -40, -78, -104, 60, -16, 36, 78, -14, -47, 85, 83, -71, 81, 97, 103, -30, 122, -85, -10, -102, 95, -7, -92, 123, 108, 13, 32, -71, 1, -75, -58, -3, 104, 115, -83, 82, 46, 33, 8, 14, 123, 3, 76, -70, -65, -48, -28, 42, 2, -48, 76, -41, 36, 120, 1, -34, 39, 117, 114, -107, -50, -106, -31, 34, 98, 82, -33, -75, 75, 11, -106, -110, -74, -46, 18, 14, 30, 37, -96, -99, -57, 6, 95, -73, -83, 72, -51, -27, -17, -53, 39, -72, 11, -49, -57, 63, -33, -36, 9, 113, 49, -8, -32, -97, 29, -84, -94, 63, 25, 68, 84, 1, 7, -93, 95, 27, -23, 0, 38, -89, -32, -30, 65, 17, 40, 58, 22, 66, 91, 40, 71, -95, 33, -105, 2, 78, -76, -73, -34, 7, 94, -8, 61, -82, -103, 87, -40, 95, 79, -62, 49, 65, 75, 57, 72, -66, -3, -3, -104, 3, 51, -55, 44, -75, -70, 30, 108, -59, 47, -112, 33, 73, 59, 51, 9, 73, -19, 99, 103, 9, 29, -97, 4, 106, -107, 68, 93, -108, -44, -87, -29, 15, -14, 10, -59, -76, 5, -30, 94, 106, 71, -117, 77, -104, 31, -9, 47, 86, 92, 26, -101, 4, 48, 10, 97, -45, -81, 64, -24, 14, -14, 29, 111, 37, 55, -56, -61, 60, -80, -58, 68, -80, -10, 38, -96, -115, 108, 52, -90, 26, 21, 3, 12, -31, 61, 81, 91, 86, -89, 97, 86, 91, -110, 48, 92, -69, -18, 60, -6, -46, 73, -26, 64, 19, 95, -53, 9, -45, 105, 68, 52, -20, 12, -19, -64, -91, 79, -55, -71, 58, 106, -78, -63, 75, -97, -24, -44, 113, 106, -73, 13, 90, -64, -84, 20, -29, 21, 87, -85, 17, 63, -76, 14, -7, -95, 3, -70, -47, 52, 24, 7, -11, -91, -100, 69, 24, -64, -43, -19, 24, -55, 14, 71, 63, 69, 104, 23, -54, 45, 111, 66, 86, 35, 22, -67, 62, 10, 82, -24, -19, -42, 12, 101, -25, 48, -32, -88, 64, 69, 103, 40, -97, 105, -18, 10, -11, -16, 48, -10, -30, -54, -30, 78, -87, -89, 29, 103, 64, 39, 23, -81, 34, -22, -98, -92, 119, -100, 45, -26, 47, 16, -75, 43, 66, 35, 14, 113, -107, 90, 43, -91, 85, -103, -10, -6, 50, -2, -44, -108, -80, -61, 92, -76, 67, 25, 27, -97, -41, 50, -15, -65, 100, -63, -69, 63, 68, 65, -34, -13, -25, -84, 86, 12, -37, 38, -67, 43, 36, -103, 94, 59, -98, 98, -79, -36, 21, -6, 116, 69, -27, -89, 32, -98, -66, 110, -32, -109, -90, -63, -92, 84, -70, 32, -108, -33, 62, -56, 20, -20, -103, 89, -78, 73, -46, -71, -57, -44, -40, -42, 68, 19, 37, 95, 70, -87, -61, -27, 94, -61, 16, 10, -53, -18, -94, 77, -45, -42, 103, 10, 61, -104, -25, 109, -15, 79, -88, -35, -48, -13, 59, 112, 3, -25, -64, 108, 76, -13, 2, -10, 104, -64, 70, -51, -13, -77, -5, -14, -80, 107, 89, 7, -109, 8, 22, -112, -102, 40, 36, 106, 81, 20, 41, -59, -52, -59, 34, -43, 2, -87, 40, 12, 113, 60, 39, 84, 66, 94, 94, 34, -11, -104, 22, 29, -101, 16, 44, -94, 35, 13, -115, 7, 111, -89, 91, 35, 94, 82, -18, 33, -85, -105, -70, -13, 99, -93, 39, 71, -52, 101, 76, 69, 61, 100, -29, 22, 32, -6, -26, -34, -43, -110, -109, -94, -51, 11, -12, 38, -110, -49, -14, 28, -69, 89, -40, 38, 81, 109, -45, 37, -92, 56, -98, 61, 8, 15, -70, -16, -72, 31, -71, 103, 71, -77, 108, -16, 110, -35, -63, -3, 38, -66, 109, -98, -82, -114, 109, 105, -17, 113, -25, -90, 49, 54, 32, 72, -97, 34, -42, 40, 7, -22, -68, -76, -23, 23, -63, -106, -13, 49, -14, 43, 36, -42, -47, 101, 87, -96, 47, -35, -100, 110, 65, 68, -68, -56, 39, -10, 52, -88, 15, -111, -37, -23, 104, -106, -112, 78, -62, -101, -99, 112, 84, -39, -105, 78, -58, 96, 113, -106, -76, 51, -60, -16, 95, -83, 64, 8, -91, 69, -108, -22, 13, 7, -29, -29, -45, -1, 76, -76, -39, 63, 56, -1, 91, 71, 83, -69, -57, -100, 89, -107, -93, 60, 111, 23, 22, -39, 65, -100, 67, 0, -59, 42, -85, 93, 26, 9, 66, 46, 3, -14, -111, 114, -94, -97, -59, 58, 85, 77, 41, 74, -79, 91, -63, -52, 66, 7, 106, -99, -62, 103, 54, 52, 114, -39, -95, 117, -70, -63, -52, 79, 90, 7, 62, -103, -29, -63, 15, 20, -90, -1, 99, 77, 60, 
  -93, -26, -52, -120, 87, 71, 90, 18, -105, -55, -18, -66, -66, -87, -55, 101, -102, -31, 60, -73, -34, -9, -15, -86, 27, 49, -15, -59, 83, 18, 90, -116, 104, 14, -17, -69, 56, 82, 80, 73, -75, -35, -85, 41, -117, 100, 11, 14, -55, 100, 67, -77, 61, -66, -83, -5, 61, -32, -23, -57, -62, -45, 71, 32, -114, 84, 10, -59, 106, 20, -91, 108, -106, 83, -2, 45, 18, 6, -35, 19, -105, 53, -88, -57, -47, 6, 58, -87, 26, 78, -16, -101, 76, 0, -82, -83, -13, 13, 41, 19, 48, 90, -5, 117, -9, -49, 71, 60, 5, 19, -83, 54, -29, -76, -41, -48, -96, -73, 70, -89, -15, -9, -98, -62, 1, 50, 79, -34, 43, -33, 32, -31, 8, -48, 106, 80, 95, -81, 46, -30, 99, -54, -81, -76, 68, 19, 45, -8, 73, 13, 106, -88, -20, 67, 17, -34, 114, -95, 56, -47, 18, 107, -23, -64, 51, -61, -108, 65, 61, -47, -69, -71, -46, -86, -8, -10, 104, 32, 99, -110, -5, 72, -19, 110, 53, 89, 45, 55, -34, 46, 58, -8, 78, 3, 9, 112, -29, 47, -70, 53, -54, -59, -76, 28, 23, -72, -54, 101, 1, 63, -27, 78, -105, -84, 65, -75, -101, 108, 105, 82, 23, 48, 80, -91, 25, 62, 97, 25, -59, 22, -19, -86, 38, -94, 48, 63, 11, -39, 7, 112, 49, -57, -63, -26, -101, -22, 66, 54, 79, -98, 63, 73, -23, 43, -61, 89, 60, 29, -91, -68, -22, -75, 26, -88, -106, 48, 109, 55, -113, -98, 69, -105, -78, -15, -62, 76, -55, -10, -40, 51, 88, 6, -12, 75, 91, -70, -18, 91, 50, 52, 50, 13, -49, 21, 52, 19, -69, 21, -103, -114, 71, 6, 32, 62, 68, -85, -82, 8, 40, 90, 51, -103, -61, 93, -100, 13, -48, -48, -37, -43, 90, -39, -58, -30, 82, 59, 61, 16, -23, -34, 20, 55, 16, 100, -47, -8, 22, -111, -15, 19, -106, -12, -46, 18, -27, 48, 90, 5, 93, -72, 30, -16, 72, -92, -6, -86, -10, 101, 26, -23, -7, -113, 104, 24, -109, 58, 38, -24, 97, -29, 75, 2, -29, 70, -68, -59, -28, -63, 93, -118, -14, -79, 43, -113, -5, -21, 50, -117, -104, -32, -88, 40, -76, -101, 37, -5, -4, 99, 87, -38, -28, -4, 34, 16, 90, -17, 74, -113, 11, -86, 110, -1, -105, 80, -38, -40, -42, -27, 91, 72, -76, -49, 114, -96, -59, -94, -92, 29, -93, 29, -44, 95, 41, 63, 80, 25, 78, 45, -63, -60, -21, -64, -85, -95, 104, -27, 45, 34, 9, 85, -42, -28, -10, -85, -86, -94, -106, -108, -54, -77, 48, 28, -62, 90, 59, 67, 29, 44, 99, 75, 85, -98, -47, -67, -14, -20, -97, 13, -26, -69, 41, 111, 97, 99, 56, -71, -91, -78, 113, -24, -55, -33, -81, -49, 15, -100, -94, 2, -111, 51, -90, 72, 44, 94, -41, -51, -52, 4, -4, -89, -16, -8, -105, -91, 44, 54, -8, 46, 30, 12, -29, 107, -104, -9, -13, -80, 62, 42, -81, -95, -51, 10, 76, 20, 63, -67, 86, -92, 33, 61, 77, -5, -4, -59, 65, -84, 19, 27, 29, 56, -53, 54, -77, 4, -21, 41, -33, 84, -15, 110, -7, -88, -49, -69, -17, -39, -58, 108, 37, -112, -50, 1, 76, -51, 10, 3, -95, 17, 105, 107, -34, -81, -87, 11, 54, -107, -33, 56, -28, -65, -105, -62, -65, -51, 40, -54, -46, 85, 55, -5, -43, 9, 12, 0, -89, -101, 5, -85, -38, 51, -79, -92, -59, -11, -74, 38, -105, -5, -12, 17, 69, 5, -40, 32, -16, 70, 28, -54, -75, 69, -40, 37, 106, -11, 84, -61, -52, -111, 63, -13, 9, -64, -118, 32, 86, -113, -54, 79, -21, -84, 68, 11, -108, 23, -13, -17, -67, 101, 24, -114, 32, 16, 40, -27, 92, 66, -33, 103, -35, -87, -123, -27, -86, -72, 10, 9, -105, -3, 11, -52, 17, -96, -58, -44, -17, 60, -15, -86, 75, -119, 3, 13, -60, -24, -83, -44, 8, -109, 39, 10, 15, 95, -71, -14, -107, 45, 34, 3, -37, -6, 35, -54, 35, 75, 7, -120, -32, -75, 71, -74, 25, -18, 27, -38, 18, 73, 38, -12, -28, 82, -51, -26, -64, -78, 7, -90, 24, -46, 0, -95, 105, -71, -8, 24, 107, 44, 49, 34, 49, 75, 85, 24, 9, -13, 14, -36, -46, 16, 5, 70, -118, -83, 41, -54, 32, -24, -39, 64, -67, 93, -88, 74, 88, -65, 54, 27, 104, 69, 32, -15, -113, -85, -3, 63, -115, 43, -15, -95, -63, -89, 52, -22, -100, 3, -6, 100, 104, -40, 44, 111, -6, -31, 111, 91, 92, 62, -67, 46, -8, -35, 32, -10, 54, 70, -78, -101, 87, -71, 26, -114, -51, -37, -4, -70, 104, 95, -94, 63, -26, -12, -113, -64, 3, 74, 103, 17, 30, -88, -53, -38, 56, 25, -24, 73, 32, -41, 78, -108, -13, -31, -18, -95, -68, 91, -102, -109, 1, -26, -12, 107, -6, 61, -28, -35, 19, -47, -99, -28, -47, -11, -21, -1, -108, 106, -26, -3, -74, 86, -63, 12, 29, -41, -42, 116, -32, 57, 7, 5, 20, -110, 20, 64, 78, -41, -18, -17, 26, -110, -101, 35, -70, -35, 114, 84, -55, -59, -27, -86, -73, 69, 86, -77, -102, 67, 52, -61, 7, 1, -13, 119, -50, -46, -88, -17, -27, 25, -33, 56, 61, -80, -22, 42, 107, -29, 106, -2, -43, -6, -97, -53, 45, -72, 52, -77, 96, 109, -68, -39, -13, 40, 76, -5, -102, -39, -79, -71, -80, -33, 49, -28, -33, -62, 43, -57, 53, -90, -108, -34, -98, -5, -32, 23, -39, 43, 94, -35, 90, -10, 6, -54, -54, -70, -21, 28, 99, 18, -79, 91, 46, 11, -114, 74, 110, -95, -15, -74, -30, 41, 51, 15, 
  -47, 27, 41, 7, -44, 8, -5, -34, -36, -48, 23, -34, -59, 61, 12, 15, -100, 73, 64, 7, 99, 70, -46, 49, 29, 78, -49, 33, -94, -20, 71, -13, 68, -96, 110, 90, -97, -102, -59, 34, -4, -83, -103, 91, -93, 38, 28, 80, -91, 69, 36, -56, 39, -102, -111, 22, -15, 83, 73, 16, -62, -77, -116, -96, 101, -43, 29, -96, -53, -117, 33, -6, -34, 60, -111, -1, 72, -45, -98, -13, 61, 71, -94, -47, 50, -110, 96, 40, 89, 82, -105, 17, -92, -67, 40, 80, 19, -88, -69, 23, 94, -99, 55, -19, 21, -51, 69, -19, 31, -44, 101, -112, 6, 18, 38, -34, 108, 63, 79, 29, 28, -20, 56, 21, 76, -53, 75, -89, -36, -62, 70, -19, 72, 58, -13, 79, -77, -50, 99, -8, -56, -113, 8, -13, 4, -15, 105, -33, -13, -81, -65, -113, 15, 26, -25, -93, 91, 35, -53, 18, 22, -67, 57, 102, 59, -48, 1, 61, -21, -86, 4, -83, 59, -94, 68, 64, 37, 38, 90, 3, 102, 56, 0, 72, 42, -26, -74, -72, 91, 104, 47, -42, 6, -2, 31, 55, -68, 71, -96, -51, 105, -40, 33, 88, -46, -4, -78, 23, -9, -42, 29, -69, 38, 80, -109, 98, 20, -52, -23, -114, -14, -106, 93, 104, -5, 3, -71, 32, 41, -22, 60, -59, -57, -113, 85, -115, 42, -64, -120, 0, -108, -8, -97, -40, 50, -62, 98, 69, 39, -48, 92, 28, -80, 59, -101, 34, 99, 15, -79, 86, 28, -24, -76, 59, 2, 90, 20, 68, 1, 107, -112, -73, 52, 86, -91, 38, 48, -62, -39, -53, 103, -47, 57, -48, -16, 74, -44, 56, 108, -6, -14, -104, -2, -9, 66, -29, 50, 76, 76, -33, 65, -60, 6, 62, 53, -112, 19, -9, -84, 19, -81, 107, 51, -109, -70, 28, -84, -25, 69, -32, 87, -31, -81, 29, -50, 113, 108, 74, -102, -1, 7, 73, -12, 3, -97, -65, -112, -110, 92, -106, 43, -90, -38, -46, 106, -71, 115, -54, -61, 81, 3, -19, -33, -91, 59, -44, 75, -59, 33, 81, 109, 25, 18, -112, 49, -90, -56, 6, 28, -68, 22, -4, 35, 40, 102, -24, -112, 10, 6, 36, 101, -18, 6, -98, 36, 100, 67, -68, -29, 101, 34, 95, 107, 58, 52, -46, 8, 22, -34, -110, -108, 111, -12, 25, -61, 29, 10, 5, 33, 19, 68, 28, -20, -8, -19, 32, 83, -84, 110, 95, 79, 97, -78, -33, 0, 56, 90, -104, -48, -77, -45, 18, -102, -4, -50, -115, -53, -88, -61, 92, -116, -114, -107, 44, 106, -65, 23, 28, -74, 97, 37, -33, -79, -81, 11, -20, -30, -21, 35, -61, -20, -57, -3, 37, -96, 22, 90, -92, 88, 17, 109, -94, -51, 100, 78, -108, -45, -96, -25, -50, -79, -8, 101, 51, 112, 77, -12, -9, -34, -90, -3, -9, 78, -50, -85, 59, 6, -116, -50, -11, -113, -77, 62, 41, -71, 106, 31, 87, 61, -83, 8, -83, 79, 17, -36, 77, 91, 5, 86, -91, -105, -93, -69, -109, -56, -99, -29, 48, -69, -50, -72, -88, 101, 47, -63, 70, 40, 60, 6, 43, -95, -37, -104, -41, 103, -81, 29, 60, 65, 46, -100, -98, -92, 55, -56, 76, 40, -52, 80, 104, 67, 99, -9, -107, 71, -19, 96, -85, 68, -42, 38, 3, -54, 86, 70, 81, 50, -28, 90, 104, -21, -90, 0, 103, 40, 32, 45, 6, 54, -42, -119, -18, -109, -112, -113, 17, 24, -7, 67, 74, 79, -48, -91, -61, -16, 92, -15, -52, 35, -105, 83, 106, -20, -73, -11, -23, 95, -64, -104, -50, -83, -7, -94, -35, 100, -89, 111, -86, 96, -27, 73, 54, -42, 5, -6, -49, 38, 96, -42, -25, -79, 81, -39, -72, 61, 0, -96, 106, -114, -52, -114, -8, 67, -49, 44, -47, -68, -58, -67, 49, 4, -104, -97, 105, -51, -5, 23, -52, 51, -45, 21, -40, -64, 36, -93, 29, 28, -39, -36, 43, 46, -19, -72, -92, -67, -36, 80, 51, 69, 36, -92, -21, 37, -70, -74, -85, 13, -27, 23, -95, 65, 5, -17, 15, 53, -28, 62, -2, -3, -62, -75, -15, -41, -87, -70, 2, -100, 7, -16, -39, 54, -80, 68, -29, -88, -91, -73, 98, 6, -81, 0, 94, 64, 101, -11, 49, 30, -50, -18, 68, 93, -84, 2, -78, 95, -71, -96, -83, 74, 3, -114, -36, 32, -30, -68, 52, 57, 15, -77, 22, 75, 109, 40, 23, -6, -115, -78, -91, -2, 89, 71, 113, -77, -51, 9, 2, 93, -9, 35, -81, 104, -67, -62, -48, 3, 93, -53, -16, 104, -23, 50, -45, -80, 108, -34, 8, -17, 6, -43, 3, -41, -81, 113, 13, -46, 94, -21, -22, 44, 39, -23, -19, 100, 48, -111, -84, -11, 96, -90, -99, 63, -64, -85, -32, 73, 26, 97, -55, -4, -42, -77, 23, -90, 98, 60, -42, -88, -103, 74, -109, -26, 62, -6, 87, 112, -3, -71, -96, -86, 98, 106, 26, 33, 86, -107, 56, 101, -67, -26, 10, 106, 45, 94, -100, -22, -11, -8, -79, -1, 30, 62, -74, -24, 41, 51, 19, 21, -79, 73, -28, 83, -110, -86, 10, -9, 73, -31, -100, -98, 54, -17, 83, 29, 19, 1, 13, -43, -16, -12, 69, -102, -17, 25, 24, 103, -26, -49, -97, 74, -10, -46, -33, -61, -84, -63, -100, -57, 35, 0, -75, -31, -46, -120, -121, 89, 8, 65, -99, -43, 83, 11, -15, -95, 80, -28, 59, -40, -89, 100, -97, -56, 73, 5, -4, 6, 25, -105, -92, -20, -68, 83, 84, 41, -56, -75, 8, -1, 64, 18, 50, -37, -105, -67, -74, 34, -63, -57, 72, 108, 107, 25, -2, 28, -22, 103, 82, -112, -85, 29, -56, -19, -70, -66, 50, 42, 52, -50, -30, 13, -28, 91, 46, 103, -45, 77, -14, -49, -3, -56, -85, 
  -75, 1, -25, 9, -30, -44, 77, -86, -82, 7, 93, 26, -45, 91, -2, 59, 20, 54, -111, 69, 83, 58, 58, 33, -14, -88, 90, 85, 73, -90, 13, -85, 29, 110, 89, 95, 76, -31, 93, -99, -90, 2, 79, 39, 8, 110, -60, -6, -47, 25, 96, 49, -78, 63, 29, 92, 7, -17, 46, 11, -99, -55, -26, 93, -92, -62, 33, 52, -55, 39, 38, -10, 39, -62, -90, 110, -79, -96, -49, -57, -48, -9, -14, 57, 39, -5, 86, 36, 22, 60, 76, 70, -7, 58, -114, -42, 42, 40, -102, 45, -88, 6, 77, -84, -55, 41, -49, -7, -68, 26, 74, 100, 66, 106, 67, 105, -114, 41, -106, -48, 70, 76, -103, 20, 80, 56, -14, -97, -49, -69, 20, -43, -73, -85, 100, 100, -31, -84, 103, -44, -18, 26, -14, -95, 107, -107, -69, -79, -74, 98, -65, -84, -65, -31, 18, 29, 70, -74, -20, -63, 100, 4, 81, 14, 39, 77, 84, -41, 82, -31, -20, -72, 42, 66, 15, 13, -36, 11, -89, 94, 69, 43, 93, -43, 37, -23, -75, -99, 85, 72, -90, 10, -100, 99, 88, -80, -74, -17, -82, 32, 71, 67, 101, 26, 111, 4, 49, 96, -87, -5, 9, 8, 9, 60, 97, -4, -6, -86, 29, 20, -22, -52, 32, 15, -8, -93, -111, 80, 28, 56, -104, -11, 34, 18, 58, -104, 115, -92, 32, 106, 25, -83, -38, -86, -63, 1, 73, 117, 97, -10, -74, 81, 104, 33, 10, 96, 83, 48, -92, -94, -31, 84, 121, -35, 97, 85, -56, -53, -71, -44, 41, 56, 123, 57, -31, -18, -99, -49, -100, -66, -34, 20, 97, -30, -101, 118, -35, -35, -44, 103, -94, -41, -37, -65, 21, 76, -43, -11, -102, -65, -55, -57, 105, -18, -103, 48, -7, 69, -72, -79, 8, 13, -30, -71, 100, 100, 24, 70, 57, -72, 73, 83, -107, 33, -93, -9, -101, 104, 88, 18, 54, -57, 30, -7, -75, 7, 64, -10, 70, -101, 3, -39, -76, -107, 96, -11, 88, 102, 64, 113, -9, -94, 91, 109, 54, 5, 9, -40, 59, -16, 50, 86, 108, 9, 21, -56, -9, -93, 42, 17, 85, -100, 26, 42, -102, -99, -59, -67, 7, -49, -17, -38, 49, -21, -45, -96, -7, 17, 84, -65, 82, 102, 5, -38, -70, 72, -7, 28, 32, -3, -95, 82, 66, -94, 72, 94, 37, -14, 62, -51, -79, -39, 106, -107, 27, 102, -103, -84, 72, -6, 100, 99, 87, -109, -32, 66, 100, -21, -44, 91, -29, 106, 24, -109, 112, 30, -47, 7, -69, -101, 85, -36, -51, -33, -8, 47, 31, 49, 86, -12, 3, 57, -112, -46, 36, 109, 3, -75, -43, 34, -21, -64, 88, -12, 66, -53, 17, 12, 4, -3, -81, 101, 76, -76, 91, 13, 25, -90, -2, -20, 53, -27, 46, 108, 48, 46, -36, 2, 0, 46, -22, 7, -41, 8, -10, 84, -47, -17, -66, -33, -100, -2, -26, 79, 21, -56, -87, -10, 9, -88, 102, 82, -87, 85, -71, -100, -63, -89, -102, 51, 90, 48, 37, 45, 85, -110, -23, -68, -23, 82, -91, 96, -51, -24, -3, -106, 47, -71, -72, 10, 103, 98, -34, -53, -76, -5, -94, 66, -38, -6, 91, 106, -6, 9, 5, -38, 105, 41, -105, 32, -88, -27, 43, 15, 101, 114, 18, 18, -99, -40, -46, 43, -87, -111, -76, -99, -61, -63, 99, -16, -30, -44, 36, -112, 81, 56, -62, -80, -45, 11, 84, -33, 26, -39, -31, -47, -19, 48, -16, -102, 9, 58, 56, -100, 54, 37, -7, 109, -89, -89, -86, 28, -72, -23, 112, -60, -100, 11, 24, 15, -71, 72, -2, -29, 90, 58, 18, -18, 40, -76, 61, 116, 118, 28, 86, -4, 26, -84, -92, -28, 120, -58, 71, 44, -65, -8, 49, -49, -42, -20, -27, 18, 87, 18, -30, 99, 3, -71, 117, 71, 96, -108, 5, 15, 6, -52, 102, 6, 21, -54, 60, -100, 96, -64, 52, 15, -32, 108, -33, -62, -97, 16, -53, -63, 93, 41, -61, 5, 99, -47, 41, 27, 115, 64, -26, 86, -89, 102, -39, 71, 90, -36, -4, 38, 61, 111, -91, 11, 83, 18, -66, -70, 113, -52, 80, 0, -65, -55, 42, -101, 54, 64, -78, 72, -103, 6, -87, -16, 4, 69, -88, 25, 17, -37, 36, 108, -55, 103, 110, -102, 90, -60, 95, 78, -67, -76, 8, 103, 113, 84, 13, 10, 29, 36, -79, 44, 57, -10, -82, 51, -88, -59, 2, 70, -67, -74, -79, -88, -89, 73, 106, 29, -58, -5, 47, 30, -79, -71, -86, 77, 62, -51, -8, 23, -69, -51, -12, -83, -41, -15, 78, 78, -34, -107, -106, -64, -115, -44, 55, 53, 91, 107, -3, 31, -68, -2, -94, -97, 61, 32, 87, 56, -95, 81, -74, -19, -6, -59, 97, -7, 41, -85, 92, 103, 21, 66, -93, -110, -58, 82, 89, -91, -94, 101, -1, -111, -48, 73, 37, -35, 29, 72, -91, 13, 13, 101, 105, -117, 96, 22, 18, 40, -67, 0, 90, 75, -14, -81, 30, 80, 96, 9, -3, -36, -48, -83, 76, 24, 35, 2, -6, -6, -41, 0, 89, -80, 19, 38, -62, 104, 91, -51, 29, -30, -47, -113, -83, -35, -20, 68, 82, -81, 94, 16, -2, -68, 71, -66, -21, 64, -9, -72, 29, 11, 41, -28, -14, 92, 29, -98, -14, -72, 47, 65, 58, -69, 80, 91, 107, 108, 34, 97, 55, 5, -37, -64, 51, 44, 39, 63, 112, -79, 39, 83, 100, -80, 5, 23, 104, 70, -42, 40, 24, 1, 24, 42, -103, -8, 42, 115, 5, -44, -22, 22, -20, 52, -36, -44, 100, -75, -54, 18, 88, -25, 88, -107, 92, -57, 107, 56, -28, 76, 90, -96, 28, -105, 71, 53, 42, -100, -1, 58, 36, -111, -23, 55, -3, -79, -83, -20, 39, 1, 85, 99, -82, -79, 58, 72, -88, -25, 
  -29, 34, -101, -20, -28, 31, -109, -18, -19, 15, 119, 31, 43, -109, 70, -47, -41, 16, -103, -56, -59, -105, 99, -34, -43, 5, 64, -87, -1, -37, 39, -17, 40, -62, -5, 119, -4, 39, 72, -3, 117, 95, -63, 65, -20, 49, 107, -31, 20, -28, -107, 102, 73, -16, -104, -17, 104, 17, 16, 81, -21, 67, -61, -37, 50, -62, 85, -6, 22, -56, 102, 60, 17, 32, -21, 83, 76, -38, -37, -110, 28, 111, -97, 94, 74, -44, 31, 85, -66, 100, 83, 42, 31, -97, 9, -102, 27, 84, -70, 29, 31, -58, 83, -71, 109, -38, -70, 56, 118, 88, 0, 26, 68, -41, -94, -49, 37, 18, -80, 89, -33, 31, -43, 75, -83, 102, 2, 54, 37, -84, -36, -102, -98, -44, 111, -100, -85, -64, -28, -84, 58, 109, 58, 22, -43, -69, -83, -61, 13, -82, 87, 100, 97, 65, 81, 101, 6, 2, -25, -3, 2, 57, -41, -57, -12, 11, -55, -61, 103, 103, 45, -20, -49, 60, -44, -106, -63, 43, -77, 102, 64, -21, 38, -15, -66, 101, -26, -15, 10, -78, -76, -10, -106, 111, 49, 97, 63, 39, -65, -58, 78, -17, 87, 96, -64, -67, -30, -106, -56, 37, 78, -48, 101, 106, -92, 48, 65, -50, -87, -109, -65, 97, 59, 53, -20, 111, 47, 47, -84, -78, 98, 58, 7, -45, -103, -97, 25, -7, 33, 39, 19, -11, 17, 18, -6, 84, 6, 51, 74, -40, 96, 57, -64, 107, 102, 84, 22, 7, 102, 90, 94, 90, -67, -73, 33, 70, 27, 68, 19, -64, 98, 74, 56, -113, -83, 94, -60, -15, 68, -19, -81, 0, 52, 2, 18, -71, -74, -35, 15, -40, -103, 114, -64, -82, 108, 88, 16, 109, 84, -52, 22, 19, 86, 65, 56, 44, -97, -6, 82, -94, -16, 77, 88, 86, 101, 32, -40, 59, -99, -98, -74, 64, -95, -72, 54, -29, -105, 26, -75, -67, 92, -93, -22, 65, 114, 107, -99, -59, 32, -86, -46, 97, 101, 84, 45, -30, 80, -3, 96, 41, 115, 116, 56, -36, 110, -91, -46, -43, 68, 42, -85, -79, 84, -58, 29, -78, 108, -13, 45, -72, -5, 47, -30, 12, -97, 6, 8, -70, -87, -51, 95, -3, 57, -62, 71, 22, -49, -21, -42, 60, -109, -70, -30, -45, -4, -5, -32, -10, -44, 77, 72, 110, -50, 88, -97, 95, -75, 117, -6, 78, -10, -68, -88, 117, 14, -108, -59, 52, -65, -80, 54, -19, 58, 63, -80, 75, 100, 62, 5, 36, -91, -75, 2, 7, -45, -27, -59, -5, 86, -56, 66, 92, 21, -103, 99, 41, -61, -59, 52, 80, -109, 34, -73, 18, -81, -19, 76, 33, 0, -99, 23, -40, 6, 58, 12, -18, -55, 93, -7, 3, 2, -49, 100, 0, -90, 17, 73, 96, 5, -77, -41, -109, 5, 88, 0, 98, -5, 44, -6, -62, 44, 55, -28, 73, 53, -46, 116, 112, 59, -23, 60, -81, -17, -17, 6, 89, 88, -63, -26, -66, 99, -75, 78, 50, 103, -83, 64, -70, -5, 20, -36, -37, 107, -103, 102, 28, -85, 56, 65, 3, 23, -104, -47, -93, 82, 36, 25, -14, 67, -102, -57, -68, 113, -30, -102, 90, 108, -3, -104, -84, -19, 12, 67, -13, 5, -17, 5, 37, 20, -111, -59, -84, 100, -90, -5, 34, 7, -61, 69, 103, 70, 15, -83, 10, -51, 92, 8, 27, -114, -18, 16, -83, -28, -72, 65, -63, -79, -73, 6, 33, -76, 19, -80, 35, -20, 83, 49, 63, -29, -92, 23, -44, -24, 72, 58, 90, -45, 32, 27, 8, -115, 112, -2, -90, 21, -91, 35, -81, 57, -37, 6, -45, 62, -44, 106, 45, 11, 88, 102, -82, 52, -55, -98, -58, 66, 14, -14, -16, -22, -7, 69, -100, 56, 15, 93, 77, 99, 5, -113, -73, -44, 107, -97, 66, -34, 46, 98, 7, 59, 69, -37, -49, -66, 25, -34, -108, -5, -18, -92, 17, 84, -91, 74, 104, -67, 39, 100, 17, -72, -28, 52, 78, 56, -44, -4, 18, -13, 19, -76, 10, 34, -21, -74, 104, 115, 84, 31, -15, -82, 39, 60, 40, 72, 53, -58, -46, 59, 100, 54, -45, 40, 96, 96, -56, 14, 48, -92, 8, -107, -80, 115, -65, 0, -63, -66, 11, -110, 2, 35, -105, 80, 12, 58, -35, -35, 100, 31, 110, -30, 43, 79, -80, -80, 76, -23, 83, -102, 62, -102, -24, -108, -59, 38, 111, -103, 22, -15, -25, 48, -89, -21, 13, 111, -95, -80, -71, -81, -99, 104, 90, -18, -82, -34, 33, 100, 91, 59, 111, -12, -5, -39, -43, 10, -82, 1, 86, -10, -70, 81, -109, -91, 18, 74, 23, 27, 1, 90, -56, 87, 71, 36, -53, 103, 32, -79, -51, 89, -83, 59, -14, -26, 9, 74, -23, 60, 12, -81, 95, 38, -64, -76, -49, 11, -90, -50, -91, -55, 44, 116, 87, -7, -65, -78, -61, -53, 63, 3, -88, 90, 75, 27, -24, 53, 2, 104, 17, 26, -39, 81, -64, 6, 29, -93, -65, 16, -106, 39, 27, 30, 60, 51, -72, 95, 72, 116, 10, 82, 39, 2, -78, 3, -50, 35, -91, 73, -86, -37, 92, 4, -6, -5, -99, 98, -30, 14, -90, 27, 92, 111, 59, 8, 28, -98, -65, 115, 60, -10, 17, 81, -14, -7, 26, -1, 33, -32, -39, -1, 76, 18, 13, 8, -29, -45, 40, 33, -109, -10, 95, -69, 75, -99, -69, -5, 42, 77, -14, -72, -30, -93, 103, -110, -33, -57, 59, 80, 63, 28, 104, -60, 85, -40, 28, -110, -50, 81, -53, -13, -94, -23, 18, -54, 18, 24, -113, 10, -75, 76, 43, 18, 93, 31, 35, -21, 47, -47, -94, -104, 61, 113, -41, 81, 83, 31, 102, -64, 111, 12, 17, 27, -93, -25, -68, -74, 74, -18, -84, 71, 112, 58, 83, -73, -99, 61, -43, 6, -115, -90, -68, -115, -10, 
